unsigned short NumOfHaarFeatsEachNode[] = { 2, 8, 23, 40, 40, 66, 44, 40,  };

unsigned short NumOfBDAFeatsEachNode[] = { 1, 1, 1, 1, 1, 1, 3, 4,  };

double EnTheta[] = {
	5.641428, 3.127470, 3.229842, 2.361433, 2.233989, 2.364072, 4.301669, 4.682821, 2.172016, 4.471612, 
};

int HaarFeats01[] = { 6, 8, 8, 6, 4, 1,
3, 10, 12, 9, 4, 1,
};

double Thresholds01[] = { 
	6.368820,	18.082180,	
};

double Weights01[] = {
-2.005554,
-5.806063,
};

double MeanTrainPos01[] = {
	0.948929, 0.989286, 
};

int HaarFeats02[] = { 4, 6, 12, 4, 2, -1,
4, 3, 8, 7, 6, -1,
7, 9, 9, 8, 7, -1,
4, 9, 10, 2, 3, -1,
2, 6, 8, 13, 7, -1,
4, 6, 12, 5, 3, -1,
5, 4, 4, 8, 8, 1,
4, 6, 10, 3, 3, -1,
};

double Thresholds02[] = { 
	-16.625932,	-7.797362,	26.081176,	-33.703079,	9.258662,	-22.591215,	0.380626,	-20.750227,	
}; 

double Weights02[] = {
-1.326578,
-0.744340,
-1.144013,
-0.400867,
-0.902237,
-0.733729,
-1.246719,
-0.613922,
};

double MeanTrainPos02[] = {
	0.821071, 0.375357, 0.987857, 0.612143, 0.970000, 0.510000, 0.865357, 0.462500, 
};

int HaarFeats03[] = { 4, 6, 2, 4, 10, -1,
4, 3, 6, 7, 7, -1,
7, 3, 6, 9, 5, -1,
4, 6, 6, 3, 5, -1,
7, 15, 9, 2, 3, -1,
4, 6, 10, 5, 6, -1,
3, 4, 6, 7, 11, 1,
4, 9, 4, 2, 7, -1,
6, 12, 2, 2, 17, 1,
2, 2, 14, 15, 3, -1,
5, 4, 4, 8, 8, 1,
1, 10, 3, 2, 16, 1,
4, 3, 6, 6, 8, -1,
3, 4, 8, 15, 4, 1,
2, 4, 2, 12, 10, -1,
5, 12, 4, 7, 15, 1,
6, 12, 4, 5, 8, 1,
2, 12, 12, 6, 6, 1,
7, 3, 3, 12, 2, 1,
4, 12, 6, 6, 2, 1,
1, 14, 9, 2, 9, -1,
4, 9, 2, 3, 9, -1,
2, 14, 6, 2, 13, 1,
};

double Thresholds03[] = { 
	-4.473198,	-7.367850,	-2.683812,	-18.085900,	29.410630,	-22.841436,	-13.170622,	-19.980002,	-3.960352,	6.864210,	3.853281,	-6.147055,	-8.113063,	-7.839404,	1.208997,	3.585570,	1.322425,	-35.016655,	9.939288,	-24.446760,	23.476280,	-13.640398,	-5.675385,
};

double Weights03[] = {
-1.217697,
-0.558626,
-1.413348,
-0.309383,
-0.425300,
-0.446032,
-0.796419,
-0.502738,
-1.546513,
-1.384076,
-0.254235,
-0.277788,
-0.237851,
-0.367395,
-0.409340,
-0.460802,
-0.969951,
-0.466232,
-0.222023,
0.030186, 
0.001066, 
0.157537, 
-0.532228,
};

double MeanTrainPos03[] = {
	0.812857, 0.243214, 0.980714, 0.360357, 0.980714, 0.419643, 0.963571, 0.602500, 0.947857, 0.971429, 0.223929, 0.960714, 0.231786, 0.964286, 0.985714, 0.356786, 0.987143, 0.973571, 0.058214, 0.997857, 0.997500, 0.335357, 0.963929, 
};

int HaarFeats04[] = { 4, 6, 2, 4, 9, -1,
4, 6, 2, 5, 9, -1,
4, 6, 10, 3, 6, -1,
3, 12, 6, 2, 5, -1,
4, 6, 2, 3, 17, 1,
7, 6, 6, 5, 8, -1,
6, 12, 4, 4, 2, -1,
6, 8, 4, 6, 14, -1,
2, 2, 14, 14, 3, -1,
3, 4, 4, 2, 6, 1,
3, 8, 10, 5, 8, -1,
1, 2, 12, 5, 2, -1,
3, 2, 12, 2, 4, -1,
4, 9, 12, 9, 2, -1,
5, 4, 4, 10, 15, 1,
2, 2, 6, 5, 13, 1,
1, 16, 9, 2, 9, -1,
3, 10, 10, 5, 8, 1,
7, 9, 3, 3, 9, -1,
2, 8, 8, 11, 7, -1,
3, 12, 2, 7, 8, 1,
4, 6, 8, 6, 8, -1,
3, 2, 6, 9, 11, 1,
4, 15, 4, 4, 4, 1,
4, 6, 10, 5, 5, -1,
6, 8, 6, 5, 12, -1,
6, 4, 8, 15, 5, 1,
3, 2, 2, 2, 12, -1,
4, 15, 4, 2, 5, 1,
7, 9, 6, 5, 8, -1,
4, 15, 2, 4, 9, 1,
3, 4, 12, 2, 6, -1,
3, 10, 6, 3, 6, -1,
1, 8, 9, 2, 4, -1,
2, 2, 2, 13, 14, -1,
4, 15, 2, 2, 12, -1,
2, 2, 6, 17, 5, -1,
2, 4, 2, 8, 8, -1,
1, 4, 9, 13, 8, -1,
7, 9, 9, 3, 4, -1,
};

double Thresholds04[] = { 
	-5.850586,	-6.096459,	-25.380884,	26.932009,	-2.826137,	-31.622973,	32.158929,	18.078720,	9.265683,	6.704264,	22.749954,	5.884578,	-9.131771,	14.990985,	5.718199,	-4.232770,	40.136631,	-33.073331,	-20.596988,	15.589506,	27.400491,	-21.263760,	-4.639248,	-8.126075,	-36.168818,	29.710776,	-8.002232,	-2.539897,	-12.645101,	-37.862695,	-2.505823,	-32.596898,	35.584521,	25.285608,	-1.465732,	21.773964,	4.176903,	-2.302360,	16.651874,	9.455996,
};

double Weights04[] = {
1.167586, 
0.741775, 
0.606134, 
0.421542, 
0.557154, 
0.230490, 
1.135109, 
0.947734, 
0.821503, 
0.812310, 
0.709887, 
-0.023453,
0.170918, 
0.946804, 
0.432897, 
-0.248575,
0.137123, 
0.621528, 
0.102791, 
0.797465, 
0.389406, 
0.580297, 
-0.241263,
0.801045, 
-0.021607,
0.423215, 
0.230780, 
0.020736, 
-0.030819,
0.520618, 
-0.050652,
0.073555, 
0.180826, 
-0.021064,
0.330046, 
-0.033590,
0.129380, 
0.276395, 
0.147783, 
0.287909, 
};

double MeanTrainPos04[] = {
	0.723929, 0.475714, 0.340357, 0.975000, 0.966786, 0.288929, 0.993214, 0.997857, 0.985000, 0.259643, 0.961786, 0.977143, 0.303929, 0.978571, 0.097857, 0.984643, 0.999643, 0.977143, 0.568571, 0.984286, 0.067500, 0.070000, 0.985714, 0.988929, 0.167143, 0.998214, 0.991071, 0.151786, 0.988929, 0.164286, 0.978214, 0.137857, 1.000000, 0.999286, 0.050714, 0.994286, 0.994286, 0.201071, 0.995714, 0.998929, 
};

int HaarFeats05[] = { 4, 6, 4, 4, 7, -1,
7, 9, 6, 5, 9, -1,
4, 9, 2, 2, 9, -1,
1, 4, 6, 9, 5, -1,
1, 2, 9, 5, 5, -1,
4, 6, 4, 5, 7, -1,
4, 6, 6, 3, 8, -1,
2, 4, 2, 4, 17, 1,
3, 2, 4, 2, 11, -1,
3, 12, 2, 2, 9, -1,
7, 6, 3, 6, 9, -1,
3, 10, 2, 2, 3, 1,
2, 2, 2, 9, 7, -1,
3, 6, 2, 9, 5, 1,
1, 12, 9, 5, 6, 1,
2, 4, 4, 2, 14, 1,
3, 2, 14, 17, 2, 1,
4, 6, 4, 10, 15, 1,
5, 6, 4, 9, 15, 1,
1, 10, 12, 4, 7, -1,
6, 4, 4, 5, 15, 1,
2, 2, 2, 9, 16, 1,
1, 2, 6, 9, 13, -1,
5, 2, 4, 15, 6, 1,
1, 6, 3, 10, 2, 1,
6, 8, 8, 5, 11, -1,
3, 4, 2, 2, 11, -1,
3, 2, 2, 7, 2, 1,
3, 8, 12, 4, 5, -1,
7, 6, 15, 7, 3, 1,
3, 8, 6, 7, 9, 1,
3, 8, 2, 11, 9, 1,
2, 14, 2, 3, 15, 1,
1, 6, 15, 5, 2, 1,
6, 4, 12, 5, 2, -1,
4, 9, 4, 7, 3, 1,
2, 2, 8, 8, 8, 1,
1, 2, 6, 6, 13, 1,
4, 6, 4, 3, 6, -1,
7, 3, 3, 8, 2, 1,
};

double Thresholds05[] = { 
	-10.835343,	-37.827494,	-11.387136,	-3.147568,	2.196720,	-14.830562,	-20.412559,	-0.057746,	-2.602975,	9.259510,	-18.399191,	-11.899957,	-1.096353,	2.307571,	14.502803,	-2.134469,	-3.603696,	-7.975577,	3.441408,	25.932887,	-3.572964,	1.752031,	4.006352,	-0.992822,	7.312692,	32.151071,	-5.998552,	-2.279000,	21.434544,	19.035785,	40.894882,	1.251608,	-6.293112,	-42.052395,	-12.444185,	-8.597639,	14.015099,	-4.678159,	-15.617870,	-11.273612,
};

double Weights05[] = {
0.693898, 
0.567475, 
0.720567, 
0.510752, 
0.437091, 
0.417159, 
0.237982, 
0.660278, 
0.211202, 
2.061771, 
0.419235, 
0.425244, 
0.279654, 
0.528163, 
0.574216, 
0.317621, 
1.138727, 
0.541718, 
0.446076, 
0.099913, 
-0.140139,
0.331778, 
-0.111873,
0.624075, 
0.574802, 
0.615375, 
0.359490, 
-0.060593,
1.001257, 
0.487831, 
0.367990, 
0.591358, 
-0.008013,
-0.019658,
-0.053918,
0.262844, 
0.128736, 
0.374467, 
0.108425, 
0.392956, 
};

double MeanTrainPos05[] = {
	0.726786, 0.224286, 0.573571, 0.884286, 0.946071, 0.282857, 0.272500, 0.908571, 0.397857, 0.991071, 0.147857, 0.965714, 0.344286, 0.929286, 0.107500, 0.985714, 0.965357, 0.993214, 0.303929, 0.982500, 0.972143, 0.081429, 0.955714, 0.990714, 0.044643, 0.992500, 0.224643, 0.984643, 0.979286, 0.034643, 0.053214, 0.962143, 0.988929, 0.994643, 0.299286, 0.971786, 0.078214, 0.970357, 0.218214, 0.995000, 
};


int HaarFeats06[] = { 4, 6, 6, 4, 8, -1,
4, 6, 6, 5, 7, -1,
4, 6, 6, 3, 6, -1,
5, 6, 4, 8, 8, 1,
7, 6, 6, 5, 8, -1,
3, 2, 6, 3, 7, 1,
3, 4, 8, 10, 3, 1,
3, 8, 4, 3, 2, 1,
1, 2, 3, 9, 6, -1,
3, 6, 4, 5, 2, 1,
6, 8, 2, 6, 15, -1,
3, 2, 10, 2, 6, -1,
2, 6, 8, 2, 11, 1,
6, 4, 10, 9, 4, -1,
6, 4, 4, 7, 14, -1,
2, 10, 12, 5, 6, -1,
4, 9, 6, 2, 5, -1,
1, 8, 3, 8, 4, 1,
1, 2, 3, 5, 2, 1,
7, 12, 9, 2, 7, -1,
3, 4, 4, 13, 12, -1,
4, 12, 2, 3, 17, 1,
1, 2, 6, 9, 4, -1,
1, 2, 3, 11, 7, -1,
1, 16, 9, 2, 9, -1,
4, 9, 6, 5, 13, -1,
1, 4, 6, 8, 6, -1,
2, 4, 2, 12, 2, -1,
2, 6, 4, 7, 5, -1,
3, 12, 2, 3, 5, -1,
7, 6, 15, 10, 3, 1,
3, 2, 8, 17, 11, -1,
7, 9, 15, 6, 3, 1,
4, 9, 4, 7, 13, -1,
6, 4, 2, 6, 6, -1,
6, 4, 4, 4, 15, 1,
2, 2, 2, 9, 8, -1,
6, 4, 6, 12, 13, -1,
1, 6, 9, 13, 8, -1,
2, 4, 6, 7, 3, -1,
1, 10, 3, 5, 10, -1,
2, 2, 2, 12, 9, -1,
3, 4, 8, 7, 11, -1,
4, 12, 4, 5, 7, 1,
1, 8, 9, 10, 3, 1,
1, 2, 15, 3, 4, 1,
2, 2, 2, 14, 9, -1,
2, 2, 12, 11, 7, 1,
4, 6, 12, 2, 4, 1,
3, 2, 2, 5, 2, 1,
3, 2, 4, 4, 12, 1,
4, 3, 2, 7, 9, -1,
7, 3, 6, 8, 2, 1,
7, 3, 6, 8, 2, 1,
5, 12, 8, 5, 10, -1,
1, 2, 3, 9, 5, -1,
1, 10, 6, 4, 6, -1,
2, 2, 2, 13, 2, -1,
2, 2, 16, 5, 3, -1,
3, 4, 4, 13, 13, -1,
3, 6, 8, 12, 6, 1,
4, 9, 12, 9, 5, -1,
4, 9, 2, 5, 12, -1,
4, 15, 8, 3, 11, -1,
3, 6, 8, 10, 4, 1,
1, 2, 6, 17, 5, -1,
};

double Thresholds06[] = { 
	-18.147292,	-14.902695,	-18.663346,	0.892247,	-31.296925,	4.425965,	5.321784,	-20.947860,	-3.043211,	-16.767690,	7.412638,	-7.763885,	-5.273645,	-4.898783,	5.533756,	66.840048,	-38.132303,	-4.848561,	-3.375261,	-64.501327,	9.016259,	-3.339240,	-9.503902,	1.346941,	32.471518,	21.679776,	-15.368949,	-1.762513,	9.335164,	18.857715,	41.855585,	4.252798,	42.567035,	18.660099,	-6.269312,	-6.063742,	-1.381994,	2.974858,	24.294944,	12.530774,	-10.409715,	1.247795,	14.614119,	-9.380300,	-16.719882,	-19.911764,	0.755657,	-11.885198,	34.749284,	-3.083010,	5.345813,	-5.985854,	-23.215754,	-23.215754,	27.961922,	-5.299435,	9.069695,	-4.008582,	30.093849,	8.575605,	29.961795,	16.911825,	-11.161788,	74.160508,	53.741965,	7.261961,
};

double Weights06[] = {
-0.513146,
-0.937699,
-0.645090,
-1.425389,
-0.158830,
-0.780408,
-0.451513,
-0.321413,
-0.369060,
-0.295333,
0.055725, 
-0.148370,
-0.646559,
-0.349873,
0.142402, 
-0.165575,
0.034231, 
-0.115972,
-0.492691,
-0.150678,
-0.124510,
-0.445807,
-0.080509,
0.261906, 
-0.458105,
-0.084896,
-0.266643,
-0.404567,
-0.089328,
-0.034158,
-0.418578,
-0.410022,
-0.492526,
-0.320616,
-0.288990,
-0.099391,
-0.280830,
-0.232125,
-0.594894,
0.158281, 
-0.313032,
-0.047618,
-0.006379,
-0.096003,
0.038232, 
0.000786, 
-0.062462,
-0.027659,
-0.326298,
-0.017755,
-0.353727,
-0.231095,
-0.303912,
-0.303912,
0.014073, 
-0.101720,
0.111498, 
-0.152939,
-0.134412,
0.024943, 
-0.186742,
-1.141713,
-0.286507,
-0.589470,
-0.149543,
-0.646519,
};

double MeanTrainPos06[] = {
	0.596071, 0.470357, 0.387500, 0.842143, 0.290357, 0.180714, 0.921429, 0.987143, 0.427143, 0.980714, 0.973929, 0.326071, 0.975000, 0.137857, 0.989643, 0.991429, 0.339286, 0.975357, 0.988214, 0.140714, 0.977500, 0.958929, 0.108929, 0.988214, 0.998929, 0.993571, 0.019286, 0.057143, 0.993571, 0.996786, 0.033929, 0.993571, 0.035357, 0.998929, 0.015714, 0.996786, 0.228571, 0.979286, 0.992857, 0.994643, 0.143214, 0.997500, 0.996786, 0.992500, 0.992500, 0.998929, 0.996429, 0.996071, 0.047143, 0.998571, 0.007500, 0.008571, 0.998929, 0.998929, 0.994286, 0.011071, 0.996071, 0.001429, 0.996429, 0.979643, 0.047500, 0.993214, 0.013214, 0.999286, 0.005357, 0.997500, 
};

int HaarFeats07[] = { 4, 6, 6, 4, 8, -1,
6, 8, 4, 2, 14, 1,
7, 6, 6, 6, 9, -1,
2, 10, 10, 2, 9, 1,
4, 6, 2, 3, 9, -1,
4, 9, 2, 3, 9, -1,
5, 4, 4, 2, 6, -1,
6, 12, 12, 5, 6, 1,
3, 4, 4, 2, 9, -1,
3, 6, 4, 6, 15, 1,
6, 8, 4, 2, 7, -1,
2, 6, 6, 2, 13, 1,
5, 8, 8, 3, 5, 1,
2, 10, 4, 7, 2, -1,
3, 12, 4, 5, 9, 1,
4, 9, 2, 2, 10, -1,
7, 15, 15, 4, 3, 1,
6, 12, 4, 3, 15, 1,
2, 2, 14, 17, 4, -1,
6, 4, 4, 10, 8, -1,
2, 2, 4, 14, 8, -1,
6, 12, 2, 3, 3, -1,
5, 2, 4, 10, 8, 1,
2, 4, 6, 8, 4, -1,
3, 2, 4, 6, 15, 1,
1, 4, 15, 5, 2, -1,
3, 10, 4, 7, 8, 1,
1, 4, 6, 5, 4, 1,
3, 14, 8, 3, 2, 1,
1, 4, 3, 9, 3, 1,
1, 8, 9, 6, 9, -1,
5, 4, 4, 11, 15, 1,
2, 4, 2, 14, 10, 1,
3, 4, 4, 7, 13, -1,
4, 9, 2, 8, 3, 1,
7, 3, 9, 13, 3, 1,
2, 2, 2, 10, 6, 1,
2, 2, 6, 9, 5, -1,
2, 2, 8, 10, 2, -1,
5, 2, 16, 17, 2, -1,
2, 2, 2, 15, 7, -1,
4, 3, 4, 11, 8, -1,
6, 8, 6, 2, 6, -1,
2, 2, 12, 8, 6, 1,
};

double Thresholds07[] = { 
	-15.309576,	-5.883571,	-30.121248,	3.840934,	-7.803218,	-14.347622,	1.443597,	12.789009,	-11.056259,	-11.173051,	-24.551930,	-1.343991,	-10.802494,	-14.811436,	-5.344560,	-16.002300,	81.838422,	-5.750236,	14.204556,	-3.523715,	1.424304,	19.501670,	2.199411,	5.003674,	-3.582008,	16.603930,	43.026678,	-11.389873,	-39.442019,	-6.488034,	12.507157,	2.280124,	-1.100811,	10.793271,	-9.586258,	-6.395984,	0.294936,	-0.274487,	10.774722,	-11.968653,	0.243666,	-4.540216,	-29.439589,	-6.924667,
};

double Weights07[] = {
0.411335, 0.849477, 0.104034, 
0.646182, -0.790076, -1.618190,
0.269459, 0.376716, -0.160600, 
3.222947, -1.621452, 0.499433, 
0.340672, 0.376808, -0.140863, 
0.206073, 0.114865, -0.021433, 
-0.024868, 0.520898, 0.551301, 
0.421286, 1.699234, 2.351279, 
0.321514, 0.341619, -0.043373, 
0.451106, -0.453966, -1.390808,
-0.099791, -0.105893, 0.012989,
1.737707, -1.031565, 1.994821, 
-0.328082, 0.291499, 0.479162, 
0.173236, 0.423745, -0.024227, 
-1.165238, 0.771476, -0.722415,
-0.005044, -0.060522, -0.053210,
0.384553, 0.169461, -0.278515, 
-0.244007, 0.135677, -0.263944,
0.158218, 0.893567, -0.076226, 
0.032264, 0.135012, -0.050834, 
0.138360, 0.632493, 0.155812, 
0.528838, 1.896094, -2.429605, 
0.054838, 0.091485, -0.091616, 
0.253106, 1.021218, -1.037783, 
0.601309, -0.692685, -0.946564,
-0.390662, 0.437561, 0.328829, 
0.149897, -0.066623, -0.121793,
0.444031, 1.327986, -2.438729, 
-0.086271, 0.116367, -0.302685,
0.165277, 0.729684, -0.736728, 
-0.148393, 0.316664, 0.170331, 
0.339888, 0.198727, -0.197706, 
0.425958, 0.432287, -0.426368, 
0.390832, -0.103965, 0.311709, 
0.212860, 0.605512, -0.644453, 
-0.034981, 0.975821, -0.095759,
0.318508, 0.285551, -0.103769, 
0.438971, 0.960909, -0.220973, 
0.166992, 0.669915, -0.760783, 
0.204153, 0.479835, -0.169698, 
0.201005, 0.477749, -0.232580, 
0.207134, 0.080352, -0.065536, 
0.413500, 0.284086, -0.115519, 
0.729022, -1.112797, -0.998193,
};

double MeanTrainPos07[] = {
	0.730714, 0.935714, 0.245714, 0.965357, 0.333929, 0.308929, 0.959286, 0.961429, 0.233571, 0.961071, 0.153929, 0.972857, 0.977857, 0.052857, 0.986071, 0.234643, 0.031429, 0.956786, 0.997857, 0.243929, 0.971071, 0.999286, 0.283214, 0.980357, 0.989286, 0.972857, 0.076786, 0.993214, 0.996071, 0.997143, 0.993571, 0.280000, 0.987857, 0.997857, 0.999286, 0.995000, 0.408214, 0.918214, 0.998929, 0.083214, 0.925000, 0.147143, 0.222857, 0.970714, 
};

int HaarFeats08[] = { 4, 6, 6, 4, 6, -1,
1, 6, 3, 6, 11, -1,
6, 8, 4, 2, 13, 1,
6, 4, 6, 2, 10, 1,
5, 8, 4, 9, 8, 1,
4, 6, 4, 5, 8, -1,
6, 8, 4, 2, 7, -1,
3, 12, 2, 6, 9, 1,
1, 10, 6, 4, 5, -1,
3, 4, 2, 5, 9, -1,
1, 4, 6, 3, 8, -1,
6, 4, 2, 4, 15, 1,
1, 6, 6, 6, 8, -1,
2, 4, 2, 3, 12, 1,
4, 9, 6, 2, 9, -1,
2, 2, 4, 4, 14, 1,
1, 12, 9, 5, 9, -1,
4, 9, 4, 3, 7, -1,
4, 12, 4, 6, 13, -1,
3, 2, 6, 10, 8, 1,
4, 12, 4, 4, 13, -1,
3, 6, 4, 5, 2, 1,
1, 2, 3, 10, 6, -1,
3, 12, 4, 2, 2, 1,
2, 8, 12, 5, 6, -1,
2, 4, 2, 13, 2, 1,
3, 2, 4, 14, 14, 1,
4, 6, 12, 3, 6, -1,
3, 10, 2, 2, 9, -1,
2, 2, 10, 9, 6, 1,
3, 2, 2, 6, 2, 1,
7, 9, 6, 3, 11, -1,
3, 10, 2, 9, 2, -1,
3, 4, 6, 2, 12, -1,
6, 4, 6, 10, 3, -1,
4, 6, 14, 12, 3, 1,
7, 9, 12, 5, 4, -1,
3, 2, 2, 4, 13, -1,
4, 9, 2, 2, 8, -1,
2, 8, 10, 2, 9, 1,
};

double Thresholds08[] = { 
	-18.048504,	-7.803659,	-9.289002,	5.415525,	0.596992,	-16.950209,	-24.043244,	4.603784,	1.230686,	-6.862733,	4.311848,	-2.114029,	-15.496591,	-1.109444,	-37.051153,	-0.056731,	16.522897,	-31.155908,	21.556990,	4.873666,	23.782966,	-14.571175,	-2.963871,	-22.218617,	63.278525,	1.700109,	-0.920909,	-32.202984,	2.802490,	-6.534212,	-2.636001,	-47.085991,	22.514768,	-23.938615,	6.849361,	-20.244856,	-68.080552,	2.112210,	-15.645406,	-2.359353,
};

double Weights08[] = {
1.349512, -0.362405, -0.026169, -0.172217,
0.732301, -0.132980, 0.018433, -0.100149, 
-0.264614, 1.046270, -0.100993, -2.005942,
0.529530, 0.050861, 0.029514, -0.083733, 
0.297379, 2.338072, 0.943732, 0.354447, 
0.545350, -0.023190, 0.019995, 0.018934, 
0.250317, 0.200660, -0.061166, 0.072483, 
0.121278, -0.164602, -4.013217, 0.675562, 
-0.303032, -0.658903, 0.222916, -0.505207,
0.598803, 0.119733, 0.017239, 0.120097, 
-0.111731, -0.128453, 0.114347, 0.722221, 
0.043939, 0.633458, 0.069982, -1.154843, 
0.685165, 0.007618, -0.002302, 0.088703, 
-0.065539, 0.355210, -0.724446, 0.121762, 
0.017157, 0.100064, 0.059019, 0.052820, 
0.073764, -0.183885, 0.391798, 3.563449, 
-0.352716, 0.753727, -3.374107, 0.543251, 
-0.035873, 0.303627, -0.170569, 0.137492, 
0.443237, 2.058956, -0.338640, 0.410377, 
0.436783, 0.109869, 0.050827, 0.105330, 
0.028476, 1.714737, -0.159433, -1.168220, 
0.058588, 1.004876, -0.549496, -0.586180, 
0.608005, -0.079252, 0.057761, -0.109386, 
0.023699, 0.853741, -0.986065, -0.909803, 
0.033488, 0.440106, -0.468933, 0.577378, 
1.009000, -0.138407, -0.034033, -0.209835,
0.102326, 0.082857, -0.279484, 0.204551, 
0.388450, -0.107895, 0.018250, -0.053136, 
-0.269003, 1.024330, -0.002427, 0.647381, 
-0.395343, 0.156078, -0.170360, -0.148945,
-0.442097, 0.088964, -0.070134, 0.043459, 
0.122985, 0.046105, 0.035789, 0.035654, 
-0.426306, 0.501037, -0.261911, -0.166768,
0.146760, 0.024183, 0.119040, -0.033178, 
-0.206799, 0.204022, -0.441926, -0.064592,
-0.192621, 0.099560, -0.394423, 0.313121, 
0.723674, -0.057235, -0.038599, -0.075190,
-0.068867, -0.084915, -0.136151, 0.033781,
0.129055, 0.031324, -0.006628, -0.104341, 
-0.480072, -0.281572, 0.571363, -0.318961,
};

double MeanTrainPos08[] = {
	0.640357, 0.218214, 0.956429, 0.379286, 0.889286, 0.219643, 0.156071, 0.976786, 0.991429, 0.120714, 0.981786, 0.983571, 0.082500, 0.964643, 0.194643, 0.933214, 0.978929, 0.175000, 0.993929, 0.274286, 0.992143, 0.964643, 0.263571, 0.971786, 0.993929, 0.066071, 0.968214, 0.210000, 0.940000, 0.982143, 0.993571, 0.049643, 0.993571, 0.016786, 0.981429, 0.997500, 0.044643, 0.976786, 0.316071, 0.973214, 
};

int HaarFeats09[] = { 4, 6, 4, 4, 8, -1,
1, 2, 3, 9, 11, -1,
3, 4, 2, 2, 15, -1,
4, 9, 2, 2, 9, -1,
2, 4, 10, 8, 9, 1,
5, 4, 12, 3, 7, 1,
4, 6, 6, 5, 6, -1,
2, 6, 14, 13, 3, -1,
3, 2, 10, 2, 6, -1,
3, 10, 2, 3, 6, -1,
3, 12, 12, 5, 2, 1,
7, 9, 12, 4, 5, -1,
4, 6, 8, 3, 7, -1,
2, 16, 12, 2, 7, 1,
3, 10, 4, 9, 2, -1,
5, 2, 4, 10, 8, 1,
6, 12, 10, 4, 8, 1,
7, 9, 12, 5, 4, 1,
2, 2, 4, 12, 9, -1,
1, 6, 3, 2, 6, 1,
2, 6, 4, 12, 11, 1,
7, 12, 9, 4, 8, -1,
6, 12, 2, 4, 2, -1,
3, 4, 10, 2, 4, -1,
4, 9, 10, 7, 9, 1,
4, 6, 10, 8, 5, -1,
4, 12, 8, 2, 2, -1,
3, 4, 14, 10, 5, 1,
4, 3, 6, 7, 6, -1,
1, 6, 15, 3, 2, -1,
1, 8, 9, 10, 2, 1,
4, 3, 2, 5, 4, 1,
5, 10, 4, 6, 15, 1,
5, 4, 4, 5, 3, -1,
2, 2, 2, 12, 9, -1,
2, 4, 4, 3, 6, -1,
2, 4, 4, 4, 12, -1,
2, 4, 4, 11, 13, 1,
4, 6, 4, 5, 10, -1,
6, 4, 2, 11, 7, 1,
2, 2, 2, 3, 13, 1,
3, 10, 6, 5, 11, 1,
3, 10, 6, 5, 11, 1,
1, 2, 3, 6, 10, 1,
1, 16, 9, 3, 3, -1,
3, 4, 6, 13, 11, 1,
6, 4, 2, 9, 5, 1,
2, 2, 2, 17, 9, 1,
4, 12, 4, 3, 8, 1,
1, 2, 3, 7, 4, 1,
3, 10, 16, 5, 3, 1,
4, 9, 4, 6, 13, -1,
1, 8, 6, 6, 3, 1,
4, 6, 4, 4, 9, -1,
4, 6, 4, 11, 6, 1,
2, 8, 6, 2, 4, -1,
7, 9, 3, 2, 7, -1,
2, 6, 4, 13, 7, -1,
3, 10, 8, 6, 6, 1,
4, 9, 2, 2, 3, 1,
2, 4, 2, 9, 7, -1,
3, 8, 2, 5, 7, -1,
2, 10, 2, 8, 12, -1,
1, 14, 12, 4, 4, -1,
5, 2, 12, 2, 3, 1,
2, 8, 2, 2, 13, 1,
4, 3, 4, 7, 15, -1,
5, 2, 4, 9, 6, -1,
5, 6, 4, 9, 10, -1,
6, 16, 4, 3, 2, -1,
7, 9, 9, 3, 2, -1,
2, 8, 2, 2, 4, -1,
1, 2, 6, 12, 8, -1,
1, 6, 3, 13, 13, -1,
};

double Thresholds09[] = { 
	 -11.309638,	-3.487195,	0.863705,	-14.394956,	0.909668,	-1.149059,	-22.553335,	7.757454,	-6.915563,	7.042928,	10.188997,	-68.527176,	-32.106056,	-16.739439,	38.863606,	2.223370,	11.065686,	10.076478,	3.187523,	-7.249137,	-8.626409,	-61.157830,	13.616907,	-29.370754,	-19.570350,	-16.348928,	40.677982,	5.237584,	-10.455844,	30.866293,	-20.461087,	-3.572319,	7.300096,	2.970342,	0.752257,	8.045162,	9.992811,	6.876006,	-21.243290,	1.502290,	-0.834272,	-23.872168,	-23.872168,	-4.125922,	27.081395,	-8.302298,	2.892638,	-0.476514,	26.165121,	-3.678928,	-42.359471,	16.281034,	6.772856,	-22.635991,	-8.116959,	23.061375,	-28.724418,	3.766864,	76.184090,	-17.901285,	-3.478312,	8.974422,	4.731525,	50.621736,	-10.519116,	-2.140599,	5.158955,	-5.620874,	-8.142360,	47.635209,	-69.447355,	9.462686,	6.243179,	7.754783,
};

double Weights09[] = {
-1.132426, -0.363091, -0.068798, 0.158897, 0.717761, -0.323895, -0.793354, -0.288114, 0.021676, -0.053887, 0.088320, -0.081367, -0.132346, 0.116436, -0.224780, -0.043352, 0.131888, -0.145205, 0.129296, -0.149502, 0.013709, 0.084377, -0.100490, 0.134959, 0.112667, 0.299113, 0.477295, 0.417880, 0.043580, 0.733129, -0.209832, 0.472469, 1.185917, -0.754278, -0.241114, -0.000308, 0.009098, 0.025151, 0.120248, 0.039133, -0.046216, -0.054954, 0.277960, -0.164511, 0.070609, -0.128905, -0.030374, -0.119403, 0.065270, 0.119889, 0.054820, -0.137174, -0.134157, 0.062546, -0.085908, -0.028297, -0.077318, 0.066679, 0.077718, 0.057395, -0.033963, 0.028112, 0.104622, -0.034322, -0.016313, 0.033030, 0.044656, -0.030643, -0.032122, -0.012466, 0.001642, -0.011405, 0.019291, 0.000000, 
-0.145086, -0.017074, -0.021551, 0.051403, -0.003980, -0.150561, -0.108479, -0.095930, 0.060167, -0.083535, 0.037708, -0.066426, 0.037998, -0.139919, -0.165435, -0.064555, 0.074305, -0.003493, -0.011674, 0.036702, 0.115422, -0.014342, 0.110698, 0.097973, -0.087613, -0.007949, 0.134313, -0.076823, 0.066095, -0.169026, -0.012529, -0.030869, -0.161862, 0.237402, 0.092112, -0.032847, 0.034038, -0.096691, -0.103013, -0.241668, 0.034496, 0.227396, -0.112843, -0.018712, -0.098862, -0.035535, -0.002231, -0.216039, -0.020976, 0.489823, -0.105340, -0.693275, 0.356732, -0.459259, 1.668926, 0.143470, -0.459765, -0.187688, 0.538142, 0.384021, 0.327384, 0.151831, -0.295989, 0.075396, 0.085071, -0.163411, -0.106039, -0.193596, 0.228129, 0.102199, -0.025380, -0.050191, 0.032263, -0.000000, 
-0.632678, 0.423246, 1.800536, 2.088465, -0.469918, -0.672778, 1.312750, 0.283260, -0.057762, 0.063693, -0.272906, -0.348308, 0.217776, -0.312201, -0.409950, -0.215659, 0.057563, -0.118838, -0.034793, -0.082679, 0.023341, 0.263207, 0.001591, -0.089519, 0.027605, 0.009308, 0.509809, -0.139809, 0.119020, 0.052724, -0.072895, 0.193578, 0.074048, -0.112108, -0.034930, 0.024314, -0.093299, -0.004937, -0.049805, 0.020804, -0.221665, 0.063940, 0.068027, -0.129106, 0.070390, -0.041802, -0.040845, -0.014176, 0.016494, -0.017780, -0.053356, 0.037852, -0.158545, -0.032367, -0.120565, -0.002612, 0.040388, -0.003387, 0.029811, 0.016971, 0.002445, -0.008520, 0.010355, -0.002715, -0.000451, -0.030273, 0.034053, 0.007116, -0.032979, 0.019540, 0.007923, -0.017045, 0.008629, -0.000000, 
-0.465181, -0.040953, 0.055112, 0.101363, 0.065053, -0.144471, -0.109531, -0.017596, 0.046415, -0.084214, 0.009283, 0.106491, 0.147708, -0.056304, 0.166619, -0.046919, -0.050641, 0.034966, -0.118371, 0.181055, 0.015110, -0.099972, -0.022282, -0.086478, -0.080136, -0.224476, -0.463913, -0.219719, -0.084855, -0.321647, 0.055594, -0.240343, -0.622383, 0.293967, 0.093241, 0.022950, -0.062725, -0.098203, 0.023063, -0.072593, 0.174037, -0.250503, -0.152310, 0.485773, -0.253680, 0.048452, -0.034917, -0.007572, -0.016738, -0.365463, 0.006002, 1.182970, 0.845720, 0.300255, 0.115454, 0.149220, 0.961081, -0.435344, 0.355438, -0.174880, -0.225889, 0.341269, 0.246999, -0.131389, 0.007626, -0.500162, -0.125892, -0.044487, 0.037633, 0.359768, 0.027407, -0.162540, 0.104800, 0.000000, 
-1.433452, 3.725763, 0.464219, -2.003909, -0.213515, 0.094767, 0.747818, -0.262872, -2.140031, 1.332810, 0.296556, -0.228815, -0.137074, 0.024964, 0.450526, 0.025295, -0.222399, -0.132899, 0.380822, -0.083804, -0.111900, 0.001114, -0.124709, 0.065581, -0.315428, 0.096498, 0.448443, -0.029355, 0.203897, 0.134185, 0.084503, -0.198795, 0.031862, 0.063353, -0.184227, -0.166699, -0.077450, 0.044852, 0.106357, -0.091226, -0.066315, -0.036358, 0.035904, 0.013342, -0.078154, -0.033097, -0.087116, -0.143879, 0.027751, -0.075950, -0.025474, -0.092954, 0.071309, 0.005807, -0.077072, 0.041235, 0.048940, 0.031501, 0.037768, 0.006940, -0.047869, 0.060848, -0.026996, 0.015905, 0.002946, 0.075692, 0.005343, -0.045184, 0.029573, -0.021820, 0.011083, -0.025654, 0.025950, -0.000000, 
-0.351316, 0.491355, -3.349713, 0.735280, -1.029293, -0.591591, 0.598243, 1.625907, -0.048655, 0.589768, -0.281987, 0.232173, -0.091227, 0.204143, 0.064743, -0.237909, -0.284658, 0.047265, -0.096506, 0.116412, 0.059322, 0.124808, 0.048012, 0.179610, -0.032945, -0.044706, 0.029957, 0.155134, 0.028247, -0.067835, -0.064434, 0.150733, 0.108752, -0.043998, -0.027925, -0.015667, 0.058086, 0.034091, -0.008944, 0.054024, -0.143062, -0.083958, 0.074318, -0.178914, 0.202980, 0.011038, 0.051160, 0.016593, 0.006045, -0.025272, 0.011651, -0.030862, -0.010954, -0.044365, -0.030357, 0.025166, 0.037590, -0.015571, 0.033043, 0.020657, -0.020383, -0.011193, -0.059035, -0.003040, 0.003769, -0.014433, 0.052118, 0.034902, -0.022459, 0.034270, 0.002750, -0.022122, -0.001089, 0.000000, 
-0.316538, -0.147729, 0.001192, 0.126206, 0.053127, 0.039748, -0.171725, -0.010246, 0.020111, -0.018599, 0.040747, 0.219596, -0.023639, 0.151852, 0.269150, -0.026881, -0.168848, 0.033603, 0.056678, -0.054873, -0.048150, 0.119304, -0.030408, 0.019637, -0.101126, -0.103415, -0.033615, -0.035465, -0.022629, -0.158898, 0.135160, -0.122097, -0.184249, 0.234512, -0.047338, 0.087160, -0.048328, 0.004968, 0.162102, 0.076703, -0.023810, -0.000573, 0.140368, -0.104377, -0.050197, 0.036587, -0.168900, -0.237611, 0.012557, -0.007794, -0.425124, -0.322150, 1.010494, -1.221152, -0.160480, -0.514832, 0.508906, -0.043842, -1.391370, -0.818447, -0.330711, -0.519407, -0.750206, -0.131417, -0.167902, -0.320231, 0.337060, -0.425138, -0.133246, -0.080174, 0.099853, -0.129265, 0.023017, -0.000000, 
-1.002061, -1.396364, 0.563238, -1.563067, 0.310888, 0.419328, 1.900286, 1.368121, 0.338922, -0.196676, -0.505269, -0.386062, -0.078857, 0.155364, 0.007985, 0.586380, -0.175037, -0.359083, 0.544790, 0.084494, -0.258456, 0.117972, -0.093836, 0.007606, -0.111020, 0.170852, -0.058766, -0.034562, 0.061871, 0.066444, 0.080903, 0.187982, 0.176676, -0.089337, 0.011507, 0.068510, -0.110860, -0.088092, 0.056175, 0.096462, 0.051363, 0.067957, 0.181651, -0.045569, 0.053812, -0.061681, -0.081314, 0.003464, 0.036519, -0.010128, 0.078864, -0.016603, -0.000488, 0.031427, -0.023778, 0.004968, 0.005618, 0.020852, 0.050356, 0.029479, -0.002213, 0.015785, 0.001891, 0.011057, -0.007105, -0.015701, 0.001241, -0.000996, -0.001174, 0.016470, 0.001832, -0.009962, -0.008245, -0.000000, 
-0.217221, 0.020540, -0.134358, -0.194630, 0.008324, 0.115927, -0.017040, -0.158802, -0.015062, -0.046797, 0.098669, 0.181454, 0.079732, 0.017988, 0.070573, 0.118464, -0.092810, 0.195385, -0.079745, 0.145251, 0.029943, -0.018847, -0.077039, 0.071344, 0.093142, -0.189371, -0.283836, -0.170880, -0.066748, -0.273825, 0.021344, -0.215722, -0.521341, 0.197452, 0.161735, -0.023716, 0.062597, -0.001589, -0.093091, 0.071468, 0.090306, 0.103117, -0.291443, 0.039930, 0.129976, -0.014236, 0.072382, 0.563414, -0.050563, 0.100854, -0.387736, -0.381424, 0.130740, 0.560909, -0.120570, 0.839910, -1.168478, 0.530411, -0.303990, -0.351867, -0.638303, 0.413944, 0.151922, -0.089012, 0.049764, -0.412176, 0.104437, -0.028427, -0.264162, 0.022282, 0.041075, -0.096615, 0.050300, 0.000000, 
-0.092500, 0.115206, -0.871564, -0.315944, -0.294972, 0.599758, 1.543117, -2.109530, 0.290936, -0.612118, -0.390943, 0.954669, 0.718714, -0.249757, -1.433605, 0.535436, 0.208226, 1.469261, 0.734752, -1.214510, 0.049573, -0.439948, -1.092874, 0.753709, 0.767862, -0.321755, -0.057646, 0.415627, 0.263904, 0.022642, -0.157781, -0.029870, -0.001729, -0.044136, -0.576428, 0.519068, 0.200248, -0.206344, -0.152128, 0.040249, 0.084440, -0.172759, 0.108164, -0.019054, -0.092097, -0.079227, -0.048361, -0.071956, 0.057166, 0.043959, 0.033277, 0.020693, 0.001177, 0.058779, 0.041961, -0.043186, -0.019047, 0.023121, -0.039397, -0.045817, 0.025100, -0.099918, 0.217994, -0.063761, -0.006029, 0.028262, 0.004331, -0.052266, -0.012559, -0.003563, 0.007702, -0.007373, 0.033140, 0.000000, 
0.204582, -0.580019, 0.027609, -0.083417, -0.394586, 0.607840, 0.051330, 0.206834, -1.688473, -1.632044, 0.573579, 0.506041, 0.192846, -0.620239, -1.049941, 0.111291, -1.367122, -0.951373, -2.267252, 0.442231, 1.721746, 1.149709, -1.252334, 1.992772, -0.299193, -0.432733, 0.356084, 0.637208, 0.348050, 0.247021, 0.006577, -0.163092, -0.799692, -0.333420, 0.377275, -0.180888, 0.311905, 0.749449, -0.324787, -0.597044, 0.262499, 0.193304, 0.341192, -0.123518, -0.226673, 0.031623, 0.120763, 0.021034, -0.054000, -0.068082, 0.062597, 0.136907, -0.169156, -0.069163, -0.012112, -0.031026, 0.107660, 0.019316, -0.121735, -0.051064, -0.029760, 0.076270, 0.041398, -0.055005, 0.024826, 0.041168, -0.006645, -0.041697, 0.099164, 0.014158, 0.000703, 0.029770, 0.013887, -0.000000, 
-0.217974, -0.044737, -0.040097, -0.071505, 0.087157, -0.286411, -0.200927, -0.130066, -0.044290, -0.048106, -0.008701, -0.076396, 0.051654, -0.093251, 0.018212, 0.093958, 0.047851, 0.009892, -0.036772, 0.033899, -0.019317, -0.084585, 0.068885, -0.118889, -0.075161, -0.051940, -0.129835, -0.051289, -0.008754, -0.169550, 0.042546, -0.182188, -0.327723, 0.209115, 0.041825, 0.055151, -0.013875, -0.144230, 0.124676, -0.099834, -0.083208, -0.095510, 0.063935, 0.082161, -0.102616, 0.081707, -0.036172, -0.121992, 0.044888, -0.069781, 0.222254, 0.199952, -0.119861, -0.032978, 0.119719, -0.674463, 0.407584, -0.167422, 0.171666, 0.444155, 0.531038, 0.323491, 0.999347, -0.006917, 0.146073, -0.223189, -1.026779, 1.422074, -0.518976, -1.969578, 0.519800, -0.075008, 0.402217, 0.000000, 
-0.194734, 0.097968, -0.017874, -0.038750, 0.034470, -0.046807, -0.100799, -0.101822, 0.007640, -0.125831, 0.033141, -0.080251, -0.046502, -0.133937, -0.018243, -0.032872, 0.153277, -0.067585, 0.022758, -0.083281, -0.007367, -0.071252, 0.065821, 0.119606, -0.158159, 0.063390, 0.015600, -0.032749, -0.048821, 0.044091, 0.002735, 0.039470, 0.021815, 0.015555, -0.169016, -0.080883, 0.074661, 0.015733, 0.043692, 0.067461, 0.053366, 0.084353, 0.040484, -0.008019, -0.081384, -0.053171, 0.110834, -0.058320, 0.082608, 0.514647, 0.197447, 0.196940, -0.496741, 0.226750, 0.249704, -0.610144, 0.123591, 0.712513, -1.081221, -0.696720, 0.600057, -0.518713, -0.659513, 0.496832, 0.285417, 0.688774, -1.339967, 1.063083, 0.894708, 0.633704, -0.039473, -0.164694, 0.015915, -0.000000, 
-0.452659, 1.829141, 0.525806, -0.303703, -0.755804, 0.932097, -0.555753, 1.238010, 4.124170, -1.470590, -0.002515, 1.149090, -0.836149, 0.673308, -0.872551, 0.184491, 0.114576, -0.271256, -0.552379, 0.010289, 0.109733, -0.311374, 0.052048, -0.130947, 0.385254, -0.187562, -0.066822, -0.052975, 0.130969, 0.101331, 0.024080, -0.087805, 0.219834, 0.036189, 0.186845, -0.117514, 0.107297, 0.288139, 0.260172, -0.075179, -0.191025, 0.032447, 0.213889, -0.327277, 0.132700, -0.008226, 0.042066, 0.073798, -0.018314, 0.191781, 0.025080, -0.033501, -0.056770, -0.034765, 0.111047, -0.065390, 0.037016, -0.016208, -0.023347, 0.078215, 0.050135, 0.186928, 0.051644, 0.019212, 0.001901, 0.049101, 0.038943, -0.036640, 0.050446, -0.024599, 0.000102, -0.009561, 0.010233, -0.000000, 
-0.439364, -0.556121, 0.514787, -0.379839, -2.633889, -0.654838, -1.044788, -0.545024, -1.137374, -0.764851, -3.525898, 0.679216, -3.636004, -0.382574, -0.121522, 0.070547, 0.296613, 0.226849, 0.633188, -0.085008, -0.254392, -0.131230, -0.058492, 0.653519, -0.097360, 1.072685, -0.288577, -0.425830, 0.747199, 0.145585, 1.881350, 0.598468, -0.090220, -0.095343, 0.189423, 0.250124, 0.012581, 0.013414, -0.135521, 0.137128, 0.042257, 0.057898, -0.060995, 0.028408, -0.147614, 0.211850, 0.054027, 0.116659, -0.005435, 0.004108, 0.211162, 0.109246, -0.150531, -0.057281, -0.042330, 0.109206, -0.024671, 0.048368, 0.041268, -0.006608, -0.095727, -0.008546, -0.042251, -0.008260, 0.012345, -0.061659, 0.003467, -0.023152, -0.039249, -0.030123, -0.074363, -0.030270, 0.012911, 0.000000, 
-0.308080, -0.015176, -0.029379, 0.048577, 0.062149, 0.070531, -0.136894, 0.070887, -0.123603, -0.071597, 0.065095, 0.112489, -0.043625, -0.104230, 0.073001, 0.022909, -0.032283, 0.021697, -0.059215, -0.073170, -0.143194, 0.040295, 0.018311, -0.009146, -0.037030, -0.027879, -0.158162, -0.112358, -0.108513, -0.160951, 0.073153, -0.103641, -0.137857, -0.057459, -0.035577, -0.002931, -0.002392, 0.015513, -0.018144, 0.035114, -0.094995, -0.105449, -0.275748, 0.220402, 0.015385, 0.063448, 0.098353, -0.025516, 0.077164, -0.103867, -0.052765, 0.181850, 0.061929, 0.453270, -0.518708, -1.482741, -0.592121, 0.822126, 0.254621, 0.800246, 0.141064, -0.442808, 0.022581, 0.083142, 0.014475, -0.107657, 0.151193, -0.407673, 0.063006, 0.067848, 0.003422, -0.113003, 0.096469, -0.000000, 
-0.106927, -0.332466, 0.327341, 0.926227, -0.102348, 0.793144, -0.493735, 0.386256, 0.129562, 0.781786, -0.153825, 0.441066, -0.209356, 1.402831, 1.890292, 0.810369, -1.196134, 0.076956, 0.154237, -0.995602, -0.136127, 0.633686, -0.861141, 0.049361, -0.103599, 0.000990, -0.248151, -0.161634, -0.270127, 0.106627, -0.016643, 0.047556, 0.139992, -0.063315, 0.256441, 0.107140, 0.023970, 0.026780, 0.025128, 0.198209, -0.238903, 0.140839, 0.200459, -0.330736, 0.201591, -0.058197, -0.031453, -0.015283, 0.142048, 0.118159, 0.036360, -0.031981, -0.048694, 0.034906, -0.063655, 0.003286, -0.019686, 0.010882, 0.064771, -0.019205, -0.034490, 0.024959, -0.076097, 0.029622, 0.027177, 0.010438, 0.006216, 0.053724, 0.047994, 0.008915, 0.008302, -0.010956, 0.023119, 0.000000, 
-0.444620, -0.185728, -0.108099, 0.047334, 0.145019, -0.066515, 0.078262, -0.073452, -0.277343, -0.262030, 0.186529, 0.099864, 0.047640, -0.124809, 0.063306, 0.096590, -0.012774, 0.198290, 0.085217, 0.077825, -0.098640, 0.074563, 0.108521, -0.146812, -0.051832, -0.087940, 0.081546, -0.031417, 0.156398, -0.417922, 0.081853, -0.106270, -0.578784, 0.550796, 0.034577, -0.146568, 0.375429, 0.147490, -0.540904, 0.327679, -0.557081, 1.308762, 0.386100, -1.380968, 1.210356, -0.381361, 0.055006, -0.211622, -0.106694, 0.720387, -0.260258, -0.455799, -0.279799, -0.030362, -0.361749, 0.023783, 0.178537, -0.139439, 0.290496, 0.086800, -0.047766, 0.043270, 0.039742, 0.020213, 0.029270, 0.001605, 0.082429, -0.025605, -0.016529, -0.014658, -0.005588, -0.025850, 0.030241, 0.000000, 
-0.404328, -0.229702, 0.094484, 0.166990, -0.237660, 0.970922, -0.006123, -0.247091, -0.052379, -0.516709, 0.106752, 0.157942, 0.197387, 0.948377, -0.403297, -4.253958, -0.414520, -0.075363, 2.035722, 0.601177, -0.299957, 0.646393, -0.583056, -0.057876, -0.518858, 0.319932, -1.960890, -1.410320, 2.101464, 3.000824, -2.102969, -0.447669, -1.250448, 0.230080, 0.842768, 0.779846, 0.615463, -0.246063, 0.168641, -0.178863, 0.013148, 0.061775, -0.602033, -0.372972, -0.630730, 0.001725, 0.343441, -0.378074, 0.047005, 0.130774, 0.010840, -0.063150, -0.169234, -0.056186, -0.257787, -0.241149, -0.145316, 0.061656, 0.066949, 0.064884, 0.102472, 0.038651, -0.167156, 0.007504, -0.125730, 0.065588, -0.061917, -0.129887, -0.238479, 0.043477, -0.054147, -0.025293, 0.022180, 0.000000, 
-0.407425, -0.240620, -0.549274, 0.140957, -0.038288, 0.808665, 1.949810, -2.758315, 0.500299, -0.319518, -0.385613, 3.009248, 0.116677, -0.105938, 2.921954, -0.443428, 2.892220, -3.903226, -0.866813, 1.885897, 0.635160, 1.783398, 0.918459, -1.474031, -1.149343, 1.150796, 0.421162, 0.615055, -0.124638, -0.096840, 0.254107, -0.732243, -0.111559, -0.842051, -0.483809, 0.230957, 0.183207, 0.384927, 0.155888, -0.144473, -0.351006, -0.350838, -0.102670, 0.033092, 0.216072, -0.017499, 0.324050, -0.040268, -0.133147, 0.099977, 0.359023, -0.047746, 0.057885, 0.022563, 0.101441, -0.008306, 0.003555, 0.026312, 0.080086, 0.143918, -0.010134, 0.008578, -0.132964, 0.060971, -0.003330, 0.058861, 0.229546, 0.227479, -0.147697, 0.070288, 0.010944, -0.025498, -0.008397, -0.000000, 
-0.149987, 0.061362, 0.307905, -0.115186, -0.206239, 0.645510, -0.249103, -0.008911, -0.396216, -0.126076, 0.513143, -0.168510, 0.077777, 0.475863, -0.114163, -0.115540, 0.176542, 0.150891, 0.118085, 0.441208, -0.751933, 0.476548, -0.533827, -1.419277, -1.020803, -0.506454, -0.537257, 1.343153, 0.570718, -1.915840, -0.502335, 5.199590, -1.651707, -1.115286, -0.152046, 1.431154, 0.198194, 0.143363, -0.954662, 0.041314, -0.039512, -0.106228, 0.417577, 0.557345, -0.527126, 0.361107, 0.387908, -0.441333, -0.187865, 0.129367, -0.191728, 0.043799, -0.283314, 0.005296, -0.100074, 0.087476, -0.133171, -0.024335, -0.110093, 0.029530, -0.070724, 0.031824, -0.086015, -0.051279, -0.116775, 0.007124, -0.207801, -0.113617, -0.318093, 0.037007, 0.040143, 0.033480, 0.041830, 0.000000, 
-0.232802, -0.060993, -0.062882, 0.041127, 0.125168, -0.024825, -0.166613, -0.078119, -0.071570, 0.084894, 0.096638, 0.116973, 0.055533, -0.196589, 0.107496, -0.069096, 0.008048, 0.092726, 0.060433, -0.104468, 0.012969, -0.102825, 0.028508, 0.016173, -0.149522, -0.016571, -0.083756, -0.136487, -0.111141, -0.016608, 0.073169, 0.101068, -0.054535, 0.149797, -0.305515, -0.137409, -0.026026, -0.032975, -0.037805, -0.011625, 0.231104, -0.083960, -0.102117, 0.104752, -0.131215, -0.020530, 0.281065, 0.010908, 0.015658, 0.435223, 0.229240, 0.132747, -0.282900, 0.082496, -0.023408, -0.304926, 0.596198, 0.043705, -0.943748, 0.198494, -0.749381, 2.447681, -0.309770, 0.245874, -0.003415, 1.736277, 1.170631, -0.796889, 1.472300, 0.022511, 0.005822, -0.151022, 0.048523, -0.000000, 
-0.592244, -1.223223, 0.525933, -0.995168, -3.607943, -0.368619, -0.494677, -0.204182, 0.775138, 1.171096, 1.847246, -0.050389, 2.539084, -0.078869, 0.278423, 0.079702, -0.136620, 0.220273, -0.436708, 0.065054, 0.154144, 0.050238, 0.242944, -0.078139, 0.138655, 0.200135, -0.127700, 0.076383, 0.443564, 0.458778, 0.663976, -0.086617, 0.283821, -0.217260, -0.159762, 0.117410, 0.037213, -0.048939, 0.081189, 0.044768, 0.021798, 0.018629, -0.050454, 0.023600, 0.063852, -0.045074, -0.053755, -0.112972, 0.263023, -0.091405, 0.097424, -0.123762, -0.135289, 0.133761, -0.036091, -0.072583, 0.093648, -0.080760, -0.008945, -0.004184, 0.078366, -0.011599, 0.074636, -0.027100, -0.049444, -0.043133, 0.053612, -0.005328, -0.028578, 0.050699, 0.002579, -0.025431, 0.015665, -0.000000, 
-0.326420, 0.047000, -0.023379, -0.077324, -0.057046, 0.042923, -0.068416, -0.132397, 0.065239, 0.045418, 0.207391, 0.065284, 0.093361, -0.032535, 0.088823, 0.041053, -0.076832, 0.038484, -0.113082, 0.215538, -0.077623, -0.168742, -0.047264, 0.038664, 0.104907, -0.256776, -0.187188, -0.128651, -0.048466, -0.111820, 0.015301, 0.000923, -0.226067, 0.069214, 0.148507, -0.083874, 0.020638, 0.020085, -0.051028, 0.066446, 0.072671, 0.001267, -0.071025, 0.038014, -0.119225, -0.071583, 0.131886, 0.415598, -0.093546, 0.149723, -0.138410, 0.648759, 0.383426, 1.246508, -0.075949, 1.156688, 0.407324, -0.113270, 1.115162, -0.406299, 0.109438, -1.449001, -1.078880, 0.170824, -0.153291, 0.855736, 0.206612, -0.485571, 0.413808, -0.375002, 0.058593, -0.109395, 0.059985, -0.000000, 
-0.127731, 0.463306, -0.217016, 0.054505, -0.045146, 1.081774, -0.279179, 0.561462, 0.160707, -1.500572, -1.373608, -0.393193, 1.461902, -4.349693, 2.587912, -0.611727, -1.181732, 0.795166, 0.663504, -0.299830, -0.197607, 0.537339, 0.065249, -0.175117, 0.383663, -0.270781, -0.006757, 0.193768, -0.172170, 0.161652, -0.062450, 0.344728, 0.451433, -0.402268, 0.090289, 0.126644, -0.005366, 0.014470, -0.090481, -0.069617, -0.010909, -0.099554, -0.117446, -0.119214, 0.130901, 0.367513, -0.057209, 0.131232, -0.044128, -0.362622, 0.050389, -0.294503, 0.046206, -0.165639, -0.130671, 0.159829, -0.219129, -0.275577, -0.015476, 0.110071, 0.002424, 0.006016, -0.069624, 0.000555, -0.066079, 0.179102, -0.132635, 0.034518, 0.090331, 0.110398, 0.005193, -0.056366, 0.012628, 0.000000, 
-0.438818, -0.209974, -0.053125, 0.085918, 0.134089, 0.064455, -0.254690, -0.108568, 0.011186, -0.014144, 0.099580, 0.114117, 0.074442, -0.044907, -0.032035, -0.033645, 0.141040, 0.116263, 0.036475, 0.094399, -0.047666, -0.058663, 0.101569, -0.043158, 0.052374, 0.014492, -0.110541, -0.054214, -0.062067, -0.223257, 0.026772, -0.039147, -0.205491, 0.294546, 0.188256, -0.108165, -0.102754, -0.077662, -0.134609, -0.060578, -0.383087, 0.350194, -0.262196, 0.181073, 0.558944, 0.339569, -0.206555, -0.499846, -0.312111, -1.899624, 0.204245, -0.365492, 0.324060, -0.994279, -0.671111, 0.437725, -0.356283, -0.180086, 0.297592, 0.179709, 0.034400, -0.138369, 0.016676, 0.014798, -0.042342, 0.318788, -0.091605, 0.154291, 0.246707, 0.103916, 0.012515, -0.108679, 0.041355, 0.000000, 
0.128010, -0.084968, -0.249683, 0.045280, -0.289215, 0.484992, -0.228311, 0.116626, 0.515629, -0.237637, 0.935442, -1.174842, -0.336025, 0.097438, 0.095771, 0.070619, 1.838441, -0.248071, 0.892730, -1.638285, 0.555056, 0.654174, 0.463542, 2.847707, -1.956517, 1.643387, 0.490312, -1.002550, -0.735087, -0.740468, -0.624828, 0.481730, -0.652000, 0.268706, -0.524202, 0.220250, 0.199996, -0.132602, 0.178902, 0.325840, 0.175818, -0.481444, -0.178659, 0.158599, 0.066869, 0.024379, -0.133363, -0.059598, -0.085091, -0.505765, -0.074700, -0.420481, 0.144048, -0.131492, -0.467164, 0.240962, 0.009234, -0.199538, 0.215253, 0.204999, 0.075549, -0.179541, -0.018991, -0.050393, -0.171768, 0.137284, -0.093676, 0.054766, 0.085375, 0.028367, 0.026853, -0.038067, 0.019165, 0.000000, 
-0.415771, -0.824177, 0.000935, 1.050913, -0.100630, 3.455742, -0.419774, 0.810283, -0.301548, 2.092091, 0.182362, 0.394767, -0.535474, -1.267902, -1.498704, 0.054489, 1.666219, 0.580073, -0.262377, 0.336743, -0.487625, -0.648036, 0.349437, -0.688650, -0.299320, 0.368813, -0.059403, 0.005791, 0.172652, -0.048891, 0.048626, -0.474673, 0.092521, 0.244202, 0.037968, 0.129808, -0.543983, -0.195311, 0.123395, -0.140799, -0.022861, 0.074503, 0.095336, 0.017702, -0.095985, -0.154947, 0.000820, -0.200215, -0.013740, -0.056174, 0.066371, 0.062322, -0.029489, -0.091515, -0.224375, 0.059449, -0.092755, 0.053880, 0.005919, 0.053783, 0.051441, -0.063788, 0.023901, 0.024247, 0.014372, 0.032114, 0.029083, -0.021228, 0.012928, 0.020139, 0.004825, -0.015735, 0.020944, -0.000000, 
-0.581179, 0.086453, -0.258120, -0.010886, 0.161393, -0.276156, -0.336314, -0.119014, -0.145783, -0.013026, 0.269817, -0.067411, 0.015661, -0.033271, 0.091204, 0.008954, 0.059699, 0.027355, 0.071415, -0.098103, 0.048101, 0.025756, 0.070202, 0.086828, 0.009530, 0.099738, 0.078397, 0.055111, 0.048702, 0.125466, -0.019209, 0.061580, 0.070575, -0.096730, -0.071423, -0.012645, -0.021974, 0.020687, -0.034378, 0.055759, -0.111088, 0.043415, 0.095181, -0.013955, 0.295201, -0.252569, -0.198880, 0.283548, 0.032939, 0.296948, 0.415072, 0.829014, 0.064973, 0.650980, -0.893098, 1.164054, -0.735760, -0.976536, -1.429277, 1.055983, 2.570210, 0.444108, -0.200373, -0.060430, 0.074955, -0.437835, 0.185028, -0.401577, -0.047191, 0.017684, 0.036691, -0.056832, 0.048284, 0.000000, 
0.048948, -0.137019, 0.350489, 0.162713, -0.229148, 0.994322, 0.504128, 0.160664, -1.034606, -0.947759, 0.753678, 1.370087, -0.077085, 0.506706, 0.699563, -0.119136, -0.457033, -0.618097, 0.266398, 0.518235, 0.833226, -2.487665, 1.006404, 0.250833, 0.566791, -1.847351, 0.414940, -2.796849, -0.951070, 0.758003, 0.736677, 1.988967, 2.003767, 1.605336, -1.925230, 0.517483, 0.213870, 0.147158, -0.469610, 0.427794, 0.166467, -0.460143, -0.883375, -1.030593, -0.881784, -0.656906, 2.365880, -0.757476, -0.821159, -0.497826, -0.031165, -0.238504, 0.362951, 0.161407, 0.066271, -0.016629, -0.086499, -0.054114, -0.064866, 0.214318, 0.193320, -0.074861, 0.146027, 0.002334, 0.048761, 0.008373, 0.301825, 0.169106, -0.156737, 0.081511, -0.019766, -0.001315, 0.052175, 0.000000, 
-0.024673, 0.081630, -0.186798, 0.009463, 0.006457, 0.230454, -0.101961, -0.089206, -0.940497, -1.028621, 0.359611, 0.993254, 0.173723, 0.020920, -1.202406, -0.711053, -1.293053, -1.450959, -1.569812, -4.846919, -2.841587, 0.949543, 2.912786, -1.895527, -0.076466, 0.456054, 0.542651, -0.575750, 0.430540, 0.245427, 0.393883, -0.304140, -0.614596, -0.013212, 0.048788, 0.151161, -0.064801, 0.693964, -0.757904, 0.236189, 1.096351, -0.555552, -0.479762, -0.232846, 0.269484, -0.222402, 0.158676, 0.059840, -0.079052, -0.291588, -0.154001, 0.003195, -0.234498, 0.278333, 0.129873, 0.297503, -0.118542, -0.006420, -0.021244, -0.293531, -0.015925, -0.160989, 0.191443, -0.023898, -0.060815, 0.049787, 0.062534, -0.088224, -0.057536, -0.019110, 0.029751, -0.037288, 0.018213, -0.000000, 
-0.326210, -0.421016, -0.763774, 0.236104, -0.384947, 0.654355, 1.538576, -2.570013, 1.527435, 0.737053, 1.276850, -2.817947, -2.288468, -1.140499, 0.675730, -0.665024, -2.615747, -0.909464, -2.132271, 0.698379, -1.868168, -2.535222, -1.081673, 0.198559, -0.226339, 1.757441, 0.163971, -0.567170, -0.396173, -0.010909, -0.293649, -0.000091, -0.312689, -0.298185, -0.402207, 0.549191, 0.398002, 0.345919, 0.224719, -0.062386, 0.003674, 0.220268, 0.077377, -0.082799, 0.103792, 0.013259, -0.098591, 0.022291, -0.005899, -0.004656, 0.351304, -0.096882, 0.099504, -0.000327, -0.036875, 0.009980, -0.059961, 0.056623, 0.022871, -0.033032, 0.040522, 0.012475, 0.002111, -0.013812, 0.011724, 0.016645, 0.004965, -0.044083, -0.019954, 0.000756, 0.000031, -0.012983, 0.005461, -0.000000, 
-0.287592, 0.413018, -0.178527, -0.079563, 0.032497, -0.047995, -0.151024, 0.034840, -0.004981, -0.149953, 0.131762, 0.100601, -0.147388, 0.070777, 0.125963, 0.109423, -0.206908, -0.046475, -0.137504, 0.060053, 0.041841, -0.174081, -0.056267, -0.112012, -0.082062, -0.032080, 0.080448, -0.045748, -0.212981, -0.252535, 0.258911, -0.380765, -0.023907, 0.091670, 0.154467, 0.330832, -0.112280, -0.330808, 0.158866, -0.322288, 0.366246, -0.062364, -0.255721, 0.558190, -0.548828, 0.183177, -0.350651, -2.014784, 0.564299, 0.451858, -0.038996, -0.628072, -0.735839, 0.122975, -0.399191, 0.265122, 0.084227, -0.238443, -0.003639, -0.019178, -0.010570, -0.013030, -0.013419, -0.047017, -0.036432, -0.040724, -0.016822, -0.016831, -0.028048, 0.042423, 0.023834, -0.028859, 0.023379, 0.000000, 
0.022345, -0.250130, 0.063780, 0.317590, 0.071574, -0.028096, 0.128131, -0.664986, 0.705732, 0.576377, 0.154673, -0.600832, -0.719894, 0.345728, 0.280012, 0.312978, 0.044335, 1.037642, 0.160439, 1.479328, -2.451712, 2.016477, 1.722926, 1.666326, 0.279090, -2.063091, 0.660129, 0.081575, 0.673177, 0.160456, 0.185417, 0.075618, 0.030201, 0.394791, -0.264144, -0.031368, -0.161920, 0.228530, 0.354870, -0.351524, 0.349543, -0.153537, -0.022418, 0.067759, -0.199695, 0.010460, -0.134341, -0.192589, 0.004704, 0.018235, 0.246821, -0.079392, 0.000582, 0.064940, -0.031088, -0.085841, 0.033274, -0.016882, -0.005169, 0.019011, 0.004365, -0.024296, 0.072535, 0.027812, 0.025754, -0.073478, 0.032222, -0.000911, -0.042394, 0.038805, 0.011225, -0.013497, -0.026335, 0.000000, 
-0.186472, -0.161417, 0.151853, -0.251715, -0.142235, 0.962987, 0.046989, -0.035356, 0.171414, -0.083615, 0.063330, -0.186904, 0.375562, 0.907212, -0.856645, -3.159846, -0.376670, 0.001763, 1.107373, 0.328441, -0.593350, 0.798803, -0.749484, 0.193290, 0.683518, -0.118308, 1.434623, 0.808306, -4.019420, -1.230950, 2.607150, -0.846313, 0.213017, -0.343864, -0.145286, -0.049402, -0.263355, 0.031730, 0.044554, 0.025419, 0.332632, 0.367725, 0.330630, -0.054745, -0.041411, -0.072908, 0.227069, 0.375433, -0.063457, 0.153270, -0.015835, 0.228024, 0.047052, -0.238054, -0.105354, -0.032545, -0.212021, -0.065406, 0.127824, 0.090448, -0.057028, 0.022300, 0.030979, 0.052047, 0.248129, -0.047811, -0.035448, 0.009401, -0.021837, -0.024606, 0.007124, -0.023303, 0.009215, 0.000000, 
-0.078038, 0.167545, -0.433227, 0.201355, -0.103881, 0.580060, 0.768066, -1.930807, -0.012061, -0.117104, -0.069218, -0.729474, -0.252600, 0.094318, -1.306856, 1.086231, -2.347209, 2.572514, 0.467434, 0.773887, 3.050983, 2.017924, 2.600292, -2.408016, -3.161073, 0.648443, -0.818149, -1.724964, -1.193146, 0.096746, 0.317068, 0.368963, 1.134402, -0.410240, 1.624386, 0.116491, -0.032434, 1.609706, 2.343864, 0.415153, 0.505295, 0.470028, 0.424747, 0.757575, 0.785894, 0.215266, 0.976644, -0.066333, -0.369464, 0.115137, -0.112382, 0.179687, 0.072070, 0.083369, -0.084084, -0.053452, 0.158952, -0.069541, 0.150721, 0.019060, 0.014632, -0.012688, -0.108023, 0.049725, -0.006294, -0.047256, -0.101145, -0.006746, 0.023581, 0.053087, -0.055862, -0.036481, 0.006926, -0.000000, 
-0.339903, -0.308086, 0.429027, 0.457260, 0.161273, 0.816166, 0.271816, -0.144488, 0.068463, 0.097425, 0.020879, 0.613733, -0.099932, 1.041790, 1.057009, -0.778277, -1.652590, 0.156203, 1.903853, -0.339707, 1.803489, -3.846262, 3.809895, 1.792203, -0.409437, -0.452924, 0.919326, 3.125464, 1.685792, -1.343377, 0.072304, -1.012028, -1.853480, -3.770888, 0.601099, -0.372044, -1.698834, -0.515835, 0.883248, -0.460609, 0.240988, 0.289352, -1.185671, -1.134566, -0.205119, -0.437367, 0.971313, 0.020981, -0.523205, -0.279009, 0.188010, 0.144199, -0.418771, -0.038353, 0.040279, -0.140654, -0.008452, -0.154599, 0.028307, -0.061471, -0.080158, -0.063459, 0.063075, 0.108802, 0.137980, -0.088347, 0.007521, -0.107986, 0.076972, -0.015852, 0.016445, -0.006013, 0.005138, 0.000000, 
-0.361434, 0.024172, -0.067213, 0.279672, 0.119908, -0.441756, -0.248882, -0.098596, 0.015744, -0.326168, 0.079236, -0.041191, -0.055341, -0.225411, 0.045942, 0.069103, -0.088824, -0.103904, -0.126426, 0.364663, 0.107906, -0.038865, -0.316622, -0.310126, -0.597365, -0.398395, -0.377928, 0.236461, 0.234219, 0.033157, 0.121316, -0.511954, -0.541704, 0.247245, -0.594092, 0.156443, -0.770684, -0.849679, 0.113701, 1.610063, 2.404248, -0.493602, 2.125947, -0.836270, -0.333252, -0.772614, -0.118152, -0.184110, -0.148959, -0.530117, 0.002229, -0.171186, -0.289885, 0.019836, 0.033013, -0.018084, -0.185766, 0.032005, 0.090829, 0.053333, 0.101523, -0.039144, 0.082797, -0.029766, -0.018300, 0.049728, -0.005725, -0.064074, -0.015132, 0.058866, -0.014106, -0.027282, 0.024562, -0.000000, 
0.078971, -0.016257, 0.038793, 0.100346, -0.012649, 0.193887, -0.004708, -0.022454, -0.032675, 0.036533, 0.032237, 0.143884, -0.013026, 0.251111, 0.219027, 0.096766, -0.226378, 0.106417, 0.047659, -0.221826, -0.010252, 0.173529, -0.159527, 0.010969, 0.078247, -0.051052, -0.115034, -0.086128, 0.033594, -0.090423, -0.060785, -0.090147, -0.103775, 0.039042, 0.094600, 0.049173, 0.000515, -0.041528, -0.146779, -0.001837, 0.017093, 0.179059, -0.087917, 0.066443, 0.225573, -0.006010, 0.019982, 0.011447, -0.044479, -0.143607, 0.206940, -0.079270, -0.064720, 0.271859, -0.108566, 0.126163, -0.228218, 0.111337, 0.327920, 0.161733, -0.207102, 0.492085, 0.354978, 0.076351, 0.108010, 0.307987, 0.098515, 0.441221, 0.245421, 1.146547, -0.727386, 3.657902, 1.860338, 0.000000, 
-0.370452, -0.079122, -0.089006, 0.000942, 0.039248, 0.103041, -0.125028, 0.065181, -0.019161, 0.157924, -0.003601, -0.047186, 0.201259, -0.065382, -0.028134, 0.149511, 0.117245, 0.038334, -0.073579, -0.003854, 0.024831, -0.141201, 0.183924, -0.127821, 0.040336, 0.076788, -0.053508, -0.349139, 0.153171, -0.017708, -0.085260, -0.213819, -0.160048, 0.117169, -0.163056, 0.155294, 0.088377, 0.209577, -0.186784, -0.302132, 0.302827, -0.250963, 0.062093, 0.033702, -0.609456, -0.338223, 0.311442, 0.583630, 0.275729, 1.392574, 0.099383, 1.132517, -0.851479, -1.805575, -0.598781, 0.353765, -0.278721, 0.106657, 0.518549, -0.046851, -0.204492, -0.111852, -0.031308, -0.068861, -0.006734, 0.041547, -0.081744, 0.008727, 0.029504, 0.030037, -0.015915, -0.021192, 0.016093, -0.000000, 
0.070405, -0.330889, 0.691412, -0.249984, 0.117703, 0.391293, -0.004514, -0.274033, -0.178453, 0.465209, -0.446077, -0.028252, -0.126899, 0.118382, 0.093681, 0.008091, -0.394056, 0.345769, 0.071174, 0.099041, 0.365260, 1.009695, 0.692987, -0.064684, 3.095685, 2.061314, -1.795478, -0.196918, -0.829524, -0.014133, -1.058735, 0.950902, -1.791809, -0.308891, -3.149769, -3.615301, -0.644259, 0.654840, 1.068946, -1.761796, 0.683997, -0.627406, 0.949724, -0.327353, 0.481760, 0.647811, 0.908802, -1.290407, 0.021900, 0.148803, -0.237087, -0.267777, 0.047816, 0.066256, -0.055587, 0.210855, -0.212600, -0.217877, 0.000666, 0.058109, -0.009480, -0.211882, 0.104369, 0.003920, 0.005900, -0.048609, 0.098487, 0.062066, -0.162839, 0.021515, 0.025234, 0.001318, -0.009369, 0.000000, 
0.159163, 0.072215, 0.133411, 0.236199, -0.584768, -0.033132, 0.452110, 0.203186, -0.857395, -1.969195, 1.925598, -0.057743, -0.858850, 0.283963, 0.856275, 0.793132, 0.598221, 1.087827, 0.861892, 0.394259, -0.594436, -0.027517, -0.073370, -0.583029, 0.612116, 0.942112, -0.071593, 0.246909, -0.149894, 0.074379, -0.356753, -0.714488, 0.162347, -0.325071, 0.546328, 0.112345, -0.475852, 0.568984, -0.718095, -0.502329, 0.069000, 0.464329, 0.600323, 0.272131, -0.740402, 0.151609, 0.188550, 0.139783, -0.254716, -0.081586, 0.192718, -0.166987, 0.196150, 0.058071, 0.004235, -0.074534, 0.092550, 0.009604, 0.000369, -0.007195, -0.037523, 0.048661, 0.053815, 0.006184, 0.016022, -0.023591, -0.006762, -0.034317, 0.002476, 0.024930, 0.001180, -0.028820, 0.016685, -7.071068, 
0.159163, 0.072215, 0.133411, 0.236199, -0.584768, -0.033132, 0.452110, 0.203186, -0.857395, -1.969195, 1.925598, -0.057743, -0.858850, 0.283963, 0.856275, 0.793132, 0.598221, 1.087827, 0.861892, 0.394259, -0.594436, -0.027517, -0.073370, -0.583029, 0.612116, 0.942112, -0.071593, 0.246909, -0.149894, 0.074379, -0.356753, -0.714488, 0.162347, -0.325071, 0.546328, 0.112345, -0.475852, 0.568984, -0.718095, -0.502329, 0.069000, 0.464329, 0.600323, 0.272131, -0.740402, 0.151609, 0.188550, 0.139783, -0.254716, -0.081586, 0.192718, -0.166987, 0.196150, 0.058071, 0.004235, -0.074534, 0.092550, 0.009604, 0.000369, -0.007195, -0.037523, 0.048661, 0.053815, 0.006184, 0.016022, -0.023591, -0.006762, -0.034317, 0.002476, 0.024930, 0.001180, -0.028820, 0.016685, 7.071068, 
0.153575, 0.045520, 0.098012, -0.009284, -0.044627, 0.119106, -0.180875, 0.386015, -0.139989, 0.066106, -0.093851, -0.133102, 0.060881, 0.011585, 0.139184, -0.166472, -0.398947, 0.101042, 0.056895, 0.100591, 0.088026, -0.106462, 0.072259, -0.314936, 0.205296, -0.003932, -0.109162, 0.119505, -0.204282, -0.176636, 0.196467, -0.319362, -0.192308, -0.033672, -0.200371, 0.266843, 0.010681, 0.117247, -0.000188, -0.085529, -0.054444, 0.181925, -0.137070, -0.201714, 0.211033, 0.181646, 0.190046, -0.115489, -0.011918, -0.067938, 0.003440, -0.115203, -0.193271, -0.438328, 0.843742, 2.158267, 2.632414, 5.375132, -0.628055, 2.075622, 1.486396, 0.376539, 0.192074, -2.947809, -4.954342, 0.005246, -0.114438, 0.163143, 0.064552, 0.163512, -0.033567, -0.019332, 0.021512, -0.000000, 
-0.036096, 0.130365, -0.166075, 0.147627, -0.005362, 0.324302, 0.237600, -0.141840, -0.096482, 0.004725, -0.110625, 0.501134, -0.038607, 0.285519, -0.068280, -0.017152, -0.020472, -0.134512, -0.035907, 0.040907, 0.887023, 0.159078, 0.154730, -0.501004, 0.340616, 0.527798, -0.433601, -0.784255, -0.356823, -0.828052, -0.461095, 1.133869, 0.633892, -0.127618, -1.110584, -0.374117, -0.041054, 1.078602, 0.655204, -0.429463, 2.279363, 3.526044, -2.776887, -2.356879, -3.212947, -0.714391, -5.345393, 1.265495, 0.672243, -0.977769, -0.018206, 0.438847, -0.262432, 0.198978, 0.027948, -0.478297, 0.198201, 0.184681, -0.003740, 0.155671, 0.056868, 0.198141, -0.018152, 0.095656, -0.002946, 0.160661, 0.073502, 0.118807, -0.053584, -0.062054, 0.039887, -0.036478, 0.039651, -0.000000, 
0.029412, -0.007746, -0.071940, 0.125860, -0.210207, -0.092063, 0.057717, 0.081106, -0.025965, -0.313952, -0.296329, -0.111581, 0.006712, 0.128803, 0.217260, -0.312922, -0.107621, -0.029144, -0.069139, -0.205125, -0.102585, 0.014685, 0.129072, 0.157377, -0.027757, -0.029855, -1.047938, 0.222989, -0.081984, -0.267417, 0.162232, 0.202493, -0.233557, 0.259062, -0.368165, -0.314187, 0.448550, 0.142197, 0.536586, -1.419754, -1.034380, 0.544710, 0.588655, 3.052098, 0.109544, -7.518552, -0.388365, 0.273157, -0.870994, -0.699415, -0.036454, -1.124277, -0.763824, 0.063443, -0.053667, -0.139558, 0.594489, 0.051881, -0.086266, -0.287414, 0.047338, -0.180205, 0.091526, -0.026732, -0.044934, -0.010239, 0.106783, -0.159175, -0.115649, -0.016428, 0.017083, 0.039185, 0.040509, -0.000000, 
-0.273693, -0.039247, -0.038482, -0.037469, 0.222529, -0.089191, -0.042003, -0.096500, 0.002500, 0.110257, 0.028824, 0.128548, 0.023066, 0.006630, 0.022968, 0.079838, 0.047368, 0.132921, 0.011609, 0.058607, -0.046543, 0.009357, -0.034936, 0.044361, 0.133193, 0.076157, -0.098355, -0.118936, -0.064031, -0.009472, -0.000676, -0.046154, -0.035403, 0.178600, -0.065564, -0.208440, 0.073030, 0.018642, -0.061127, 0.165675, -0.330769, 0.150535, -0.180863, 0.106573, 0.137431, 0.436144, 0.296004, 0.539455, -0.170831, -0.864639, 0.243284, 0.078229, -2.055105, -0.000194, 0.490965, -0.032982, 0.330309, -0.212889, 0.019361, -0.170156, -0.025513, -0.062472, -0.214029, 0.066049, -0.036020, -0.294027, 0.088725, -0.191391, -0.031398, 0.054550, 0.058327, -0.036722, 0.053288, -0.000000, 
-0.423334, 0.325615, -0.450180, 0.359030, -0.473303, 1.357684, -0.233259, -0.365729, -0.525144, -1.377501, -1.380728, -2.195691, 1.170831, 1.362341, -0.072199, 0.818946, 0.550194, -0.652039, -0.258028, 0.343237, -0.159473, -0.326690, -0.016319, -0.344593, 0.142486, -0.097896, 0.156273, -0.026919, 0.271303, -0.011169, -0.044785, -0.294969, 0.027337, 0.115002, -0.030455, -0.175754, -0.099353, 0.036702, 0.058664, 0.046591, 0.085457, -0.115266, -0.108987, -0.145803, 0.083255, 0.109172, -0.039366, -0.009359, -0.022672, -0.105073, -0.055450, -0.020775, -0.138238, 0.027215, -0.031027, -0.030325, -0.010393, -0.009305, -0.006454, -0.008926, 0.020318, 0.046373, -0.022630, 0.012514, 0.000892, 0.032123, -0.003517, -0.020243, 0.015955, 0.004642, 0.014473, -0.005245, 0.001522, -0.000000, 
-0.386402, 0.037877, -0.040704, 0.181654, -0.038569, -0.122347, -0.017874, 0.204710, 0.328790, 0.060663, -0.104942, 0.021796, -0.082352, 0.026611, -0.170816, -0.024168, 0.080391, -0.121309, -0.138089, -0.063472, 0.157446, -0.036417, -0.085630, 0.131038, 0.096551, -0.029839, -0.395752, -0.027648, -0.110429, -0.126658, -0.094576, 0.218286, 0.011728, -0.156866, 0.084428, -0.151380, -0.276968, 0.299928, 0.381324, 0.114693, 0.590413, -1.122328, -0.357333, 0.575199, -0.728609, 0.405050, 0.208574, 1.668809, -0.246866, 0.376382, -0.161358, -2.127852, 0.105163, -0.061415, -1.031635, -0.009556, 0.715148, -0.313385, 0.201322, 0.243285, 0.120717, -0.008324, 0.122866, -0.048561, -0.031411, 0.009179, -0.058479, 0.040984, 0.034655, 0.111076, 0.013527, -0.045409, 0.012784, 0.000000, 
-0.428635, -0.361582, -0.579672, -0.001481, -0.434809, 0.518986, 0.443585, -0.606774, 0.543421, 0.517426, 1.739512, -2.788453, -2.897356, -0.974532, 0.421936, -0.331577, 0.949298, -1.690642, 1.217596, -2.303956, 3.170387, 1.398667, -0.465111, -1.960061, 2.551042, -3.753659, -0.733687, 0.717345, 1.098797, 0.331154, 1.353780, -0.165911, -0.219072, 0.029846, -0.025532, -0.090373, -0.055301, 0.187883, 0.059180, -0.065492, -0.111701, 0.038056, -0.485345, 0.204186, 0.182336, 0.153026, 0.032458, 0.060238, -0.072063, -0.112169, 0.067448, 0.080012, -0.221259, -0.289989, -0.119271, -0.048745, -0.066060, 0.026672, 0.056244, 0.078483, -0.094634, -0.055655, -0.027384, -0.124613, 0.100225, 0.034072, -0.030920, 0.008195, 0.054370, 0.013383, -0.029354, -0.017088, 0.005118, 0.000000, 
0.154776, 0.222660, 0.162842, 0.022965, 0.034687, 0.065371, 0.305097, 0.075355, -0.293602, -0.588420, 0.687144, 0.193218, -0.510714, 0.090682, 0.189178, 0.011755, 0.273272, 0.668424, 0.620409, 0.624372, -0.887200, -0.308256, -0.227942, -0.933557, -0.184624, -0.057372, 0.004403, 0.043645, -0.257042, 0.282962, 0.231581, 0.692001, -0.295246, -0.067090, -0.532377, -0.398882, 0.034563, -1.862364, 1.898331, 1.512255, 0.311527, -2.136619, -2.846725, -0.180997, 3.082833, -0.676488, -1.518977, 0.314692, 0.876349, 0.563482, -0.472262, 0.407007, -0.471427, -0.730620, 0.630686, -0.000436, 0.181410, -0.230024, 0.263754, -0.108859, 0.075843, -0.131490, 0.005868, -0.008608, -0.057358, -0.015024, -0.024812, -0.161795, 0.053336, 0.054609, -0.006275, 0.035856, -0.020241, 0.000000, 
-0.267249, 0.628371, 0.810641, 0.255173, -0.050161, -0.175753, 0.311365, -0.206168, -0.391095, 0.007646, -0.211436, -0.348426, 0.019923, -0.183598, 0.063029, -0.161015, 1.188534, -0.309193, -1.459125, -0.646422, -0.701723, -0.542184, 0.831647, 1.500643, -0.413026, -0.865586, -4.978458, 1.715043, -1.832845, 0.306360, -0.030273, -0.001395, 1.277428, -0.346212, 0.464695, 0.516790, 0.450476, 0.483298, -0.257974, 0.383836, 0.158238, 0.334038, -0.259570, -0.665837, 0.496629, 0.325128, 0.115177, -0.135569, 0.032294, 0.516496, -0.160894, -0.060951, -0.106428, -0.289300, 0.221847, 0.067091, -0.008853, -0.292000, 0.130089, 0.063460, 0.093342, 0.085654, -0.051553, -0.069608, -0.090187, -0.097423, -0.008041, -0.013676, 0.034564, 0.016653, -0.005390, 0.065670, -0.074539, 0.000000, 
-0.218552, -0.138182, -0.037341, 0.036085, 0.160588, 0.035899, -0.167133, -0.357350, -0.142361, -0.017728, 0.161560, 0.261990, 0.083152, 0.075784, -0.066475, 0.071036, 0.021267, 0.107408, 0.069472, 0.010048, -0.008743, -0.279308, 0.008942, 0.195447, 0.270905, -0.338791, -0.020939, -0.086949, -0.172235, -0.393874, 0.272920, 0.266654, -0.335390, 0.886338, 1.164361, 0.418133, -0.247223, 1.268115, 1.023320, -1.054022, -1.191857, -2.278448, 0.857167, -1.840371, -0.579788, -0.325450, -1.185230, -0.113511, 0.347913, -0.442733, 0.201210, -0.089584, -0.246067, 0.142846, -0.017695, 0.100762, -0.078171, 0.042650, -0.111554, -0.047087, -0.043204, 0.126713, -0.155571, 0.108712, -0.041165, 0.031659, -0.026126, 0.029517, 0.060399, 0.004547, -0.026863, -0.003696, 0.007698, -0.000000, 
0.312831, -0.043915, 0.010576, -0.008340, 0.020868, 0.005072, 0.044486, 0.054494, -0.022054, -0.021569, -0.011829, -0.004450, -0.033154, 0.005856, 0.076063, 0.010186, -0.005136, 0.004001, -0.046005, -0.049259, 0.022196, -0.039104, -0.035572, -0.139927, -0.018505, 0.007540, -0.061440, 0.026660, 0.040375, -0.050538, -0.003641, 0.000198, -0.018669, 0.051939, -0.048540, 0.010152, -0.013960, -0.015202, 0.057066, 0.034241, -0.035505, -0.001434, 0.124309, -0.074452, -0.116118, 0.030342, 0.039056, 0.096461, -0.019868, 0.005288, 0.151683, 0.062318, -0.277759, -0.098477, -0.215545, -0.390902, 0.344612, -0.153573, -0.196625, 0.274566, 0.301615, 0.027746, 0.185321, 0.056991, 0.009163, 0.397323, -0.102888, 0.041912, -0.026820, -0.540483, -0.071451, 1.241530, -2.686581, 0.000000, 
0.392622, -0.057356, -0.202524, 0.090845, -0.069932, 0.037759, 0.065141, -0.039319, -0.296342, -0.734581, 0.331603, 0.149081, -0.127809, 0.031792, 0.165235, -0.185445, -0.123647, -0.084983, -0.276468, -0.595189, -0.385504, -0.089622, 0.652244, -0.240875, -0.377421, -0.199513, -0.475823, 0.209297, 0.318172, -0.363399, 0.176776, -0.074228, 0.239560, 0.744966, -1.184078, 0.234012, 0.084506, -2.635566, 2.622292, -0.211803, -2.332510, 1.539724, 1.716471, 0.421142, -1.632844, 1.123036, 0.029366, 0.869686, 0.345694, -0.034022, -0.041878, -0.080834, -0.140027, -0.051474, -0.181909, 0.096185, -0.047005, 0.093825, 0.198426, 0.029240, -0.070635, -0.017748, 0.041213, 0.023560, 0.012604, -0.128270, 0.019844, -0.045739, 0.058025, 0.104489, -0.014533, -0.056052, 0.060410, -0.000000, 
-0.127955, 0.094035, -0.093626, -0.228306, 0.013482, 0.522803, 0.238686, -0.642269, 0.537022, 0.072497, -0.137784, -0.595103, -0.474381, 0.236509, -0.455496, 0.167668, -1.324692, 0.704879, -0.266115, 0.687823, 1.282104, 0.999963, 1.244382, -0.555482, -1.365666, 0.129175, -0.973800, -0.287256, -0.852466, 0.469244, 0.442030, -0.435509, 0.155164, -0.990800, -1.101764, -1.852654, 0.054534, -3.849642, -5.743394, -0.344787, -2.563227, -2.350183, -0.152808, -1.305558, -1.688048, -0.504253, -1.521540, 0.556262, 0.824926, -0.152152, -0.119610, -0.550206, 0.116804, 0.110091, -0.314438, 0.005697, 0.313018, -0.024547, -0.082338, -0.142260, 0.003979, -0.017147, -0.073974, -0.022227, -0.127542, -0.043069, -0.059803, 0.116857, 0.037170, 0.042427, -0.090220, 0.021874, 0.001158, -0.000000, 
-0.049082, -0.135882, 0.012700, -0.216681, 0.000411, -0.142829, 0.081946, -0.015979, 0.013700, 0.019710, -0.052742, 0.004030, -0.028984, -0.072268, -0.016393, 0.079411, 0.014682, 0.203352, -0.015717, 0.019323, -0.022555, -0.060701, -0.001868, -0.049439, -0.005421, -0.040002, 0.068992, 0.028610, 0.142741, -0.106564, 0.091092, -0.142298, -0.269615, 0.070034, 0.193710, 0.061833, 0.159014, 0.094538, -0.069503, 0.021048, -0.047957, -0.077304, -0.006900, -0.001626, -0.224683, 0.021185, 0.080458, 0.009032, 0.056942, 0.210023, -0.865258, -0.248239, -0.358485, -0.266295, 0.562911, -0.255335, -0.249775, -0.089454, 0.251074, 0.668070, 0.437971, -0.207842, -0.765589, 0.175054, 0.037583, 0.973228, 2.435791, 1.957226, -1.587224, 0.447274, 0.056433, -0.167197, 0.014891, 0.000000, 
0.184111, 0.049282, 0.486809, 0.249383, -0.173400, 0.305514, -0.430742, -0.736249, -0.160560, -0.342368, 0.293260, 0.049146, -0.210081, 0.422209, 0.344341, -1.883286, -0.404551, 0.452469, -0.307887, -0.185299, 0.273176, 0.414750, -0.297306, 0.184609, -0.121064, 0.415174, -0.634931, -0.116419, 2.787268, -4.192955, -0.837895, -0.959247, 3.424878, 1.094815, -0.542669, -0.770190, -0.673682, 0.627369, -0.614054, 0.192866, 0.144568, -0.756181, -0.076029, 0.315292, 0.601513, 0.107551, 0.108360, -0.195478, 0.375905, 0.233344, -0.175981, 0.014187, -0.006694, 0.085550, 0.081515, 0.091379, -0.015783, -0.027006, -0.034820, -0.063670, -0.046571, -0.142727, 0.079891, -0.101853, 0.024676, 0.069985, -0.014495, 0.007646, 0.011439, -0.027716, 0.032616, -0.013294, -0.016518, -0.000000, 
-0.405666, 0.038090, 0.306325, 0.275210, 0.036103, -0.079611, 0.018007, -0.043081, 0.191591, -0.177436, 0.085464, -0.252850, 0.017497, 0.097116, -0.069822, 0.088669, 0.071385, -0.091776, -0.003023, -0.014957, 0.000634, -0.029281, 0.024795, 0.036824, -0.096644, 0.107921, 0.271273, -0.251678, 0.011605, 0.037818, 0.003934, -0.218521, -0.233027, 0.174593, -0.043352, 0.023016, 0.090643, -0.126624, -0.049254, -0.094504, -0.230567, 0.343280, 0.198768, -0.198586, 0.110783, -0.491687, -0.052544, -0.092082, 0.062290, 0.288889, 0.060847, 1.198081, -0.249266, 0.654495, 1.058856, -0.331906, -1.320300, -2.843805, -1.569956, 2.665989, -3.197831, -1.488793, 0.282725, -1.413220, -2.650427, 0.753476, -0.776324, 0.609095, 0.287859, 0.226271, -0.030926, -0.073020, 0.030204, 0.000000, 
-0.058876, -0.072979, -0.017063, 0.037975, -0.091351, 0.019203, 0.045776, 0.010453, 0.078962, 0.071215, 0.113152, 0.061555, 0.165420, 0.046769, 0.036342, -0.104229, -0.350929, -0.055379, -0.114165, -0.158395, 0.011331, 0.164720, -0.114865, 0.127647, -0.000524, 0.218596, -0.040217, 0.211257, 0.083124, 0.201481, 0.068002, -0.338413, 0.492340, 0.334482, -0.196652, -0.097768, -0.214439, -0.714629, 0.261905, -0.066844, -0.363008, -0.935751, -0.167493, 0.345086, -0.162215, 0.963010, -2.469175, -1.078305, -8.301123, 1.621103, -1.097894, 0.808586, -0.642626, -0.030357, -0.267392, -0.107626, -0.154402, 0.262748, 0.132099, 0.137288, -0.148790, 0.107459, 0.002705, 0.038380, 0.025603, -0.075204, 0.106929, 0.116468, -0.141070, 0.038914, -0.196044, -0.079442, 0.032402, -0.000000, 
-0.221340, -0.026586, -0.128069, 0.105290, 0.060781, 0.095911, 0.049784, -0.086638, -0.119007, 0.007482, 0.057459, 0.005521, 0.053502, 0.086188, -0.120282, -0.076880, 0.093245, 0.056743, 0.142404, -0.008430, -0.025358, -0.046175, 0.010126, -0.005648, -0.002801, 0.042133, 0.077630, -0.136318, -0.176835, -0.171187, 0.145122, -0.030899, -0.268593, 0.178081, 0.224061, 0.072969, 0.085479, 0.094590, -0.010920, -0.231806, -0.294920, 0.053322, -0.043926, 0.071488, -0.193463, 0.284579, -0.076048, 0.239398, 0.021293, 0.295773, -0.227574, -0.141901, -0.317663, -0.185684, 0.938852, 0.193041, -0.016561, -0.244055, -0.565120, -1.161407, 0.751468, -1.060285, 2.702275, -0.433957, -0.012245, 1.059429, 0.327405, -0.557374, -0.138062, 0.219079, 0.032792, -0.127240, 0.134607, 0.000000, 
-0.194891, 0.018921, -0.319174, -0.220515, -0.368562, 0.050480, 0.523464, -0.904099, 0.092610, -0.112870, 0.106779, 0.270707, 0.251442, -0.034203, 0.506402, -0.342785, -0.063823, -0.791285, -0.270198, -0.219266, -0.448686, -0.319787, 0.248618, 0.728155, 0.626974, 0.187175, 0.412828, 0.097266, -0.470801, 0.311154, -0.425218, 2.285638, 0.620921, 1.764855, 4.640846, -3.647240, -1.796991, -1.700342, 0.001449, 0.305344, 0.627787, 0.683905, 0.279310, 0.271723, -0.429891, -0.207641, 0.172381, -0.085550, 0.237562, 0.304199, -0.425469, 0.442501, -0.184239, -0.203795, -0.309109, -0.363677, -0.194568, 0.186852, 0.019160, 0.168457, -0.126000, -0.132701, 0.085101, -0.091931, -0.200870, 0.101841, -0.008688, -0.181512, -0.086577, -0.013244, -0.265211, -0.087184, 0.041174, 0.000000, 
-0.165847, -0.229437, -0.029374, -0.014782, 0.015993, 0.408458, -0.060602, 0.187629, -0.181606, -0.177070, 0.138776, 0.178318, 0.033652, -0.143287, -0.133410, -0.222489, -0.261402, 0.275962, 0.133954, 0.064107, -0.093884, -0.434952, 0.422402, 0.227890, 0.593364, -0.059275, 0.096524, 0.275125, 0.099253, 0.329140, -0.043184, -0.040030, -0.778484, -0.280095, -0.232912, -1.667981, 0.561977, 2.608138, 0.006716, 5.353242, -2.416677, -0.270482, 0.055870, 1.398133, -1.754466, -0.078427, -0.990379, -0.834880, 0.355195, 0.454579, 0.197200, -0.041304, 0.144814, -0.232331, 0.126979, 0.152140, -0.070656, 0.075468, 0.085439, 0.061001, -0.008915, 0.035946, 0.219801, -0.029000, -0.015731, 0.118452, 0.054227, 0.011010, 0.006441, -0.013542, -0.036412, 0.010580, -0.049208, 0.000000, 
-0.072720, -0.023085, 0.218657, 0.411166, 0.034242, 0.756006, 0.221638, -0.163769, -0.445764, -0.053349, 0.219224, 0.822494, -0.006935, 0.390745, 0.578193, -0.656053, -0.005478, -0.396834, 0.689388, 0.320303, 0.672416, -1.911000, 1.450852, 0.795399, 0.335817, -1.175050, 0.011047, -1.715013, -0.210149, 0.291380, 0.284110, 0.639067, 0.032617, -0.316085, -0.122172, 0.234207, 0.744905, 0.340020, -1.244532, -1.409154, 0.934053, 0.183479, 3.461657, 2.785837, 2.837588, 1.656837, -3.607140, 1.151704, 1.045725, 0.685156, -0.448306, -0.057611, -0.448479, 0.069028, 0.239477, -0.503028, -0.033244, 0.082689, 0.255596, -0.138026, 0.123133, 0.046820, 0.053486, -0.137796, -0.251249, 0.300279, 0.228169, 0.028080, -0.231103, 0.066506, 0.053150, -0.048222, 0.002495, -0.000000, 
-0.282706, -0.089256, 0.276559, 0.294691, 0.056737, 0.430499, 0.008980, 0.009490, 0.196243, 0.086730, -0.181267, -0.257563, -0.265798, 0.386028, 0.372998, -0.034986, -1.253557, 0.116394, 0.557978, 0.347663, 1.573317, 0.030989, 1.511461, 0.020027, 0.306538, 2.139837, 0.688906, 4.800144, -0.126851, 1.641201, -0.297954, 0.562263, 0.017173, 5.558248, -1.159302, 1.839056, 0.142104, 0.497061, -0.784214, 0.276229, 0.694619, -0.177934, -0.557314, 0.822044, 0.208554, 0.235531, -0.203719, 0.640475, 0.468097, 0.130952, -0.226851, -0.044507, 0.048650, 0.313493, -0.260642, -0.133090, -0.133529, 0.103717, 0.187511, 0.031579, -0.101930, -0.185051, -0.058375, -0.019813, 0.133652, 0.034169, -0.001696, -0.125623, -0.053078, -0.037664, -0.066203, -0.033953, 0.014800, -0.000000, 
0.120784, -0.023398, 0.322735, -0.530427, 0.268062, 0.106631, -0.360637, -0.153047, -0.094120, 0.554432, -0.393036, -0.203372, 0.070671, 0.027581, -0.262713, 0.091774, -0.198480, -0.375383, -0.786972, 0.766244, 0.976031, 1.199376, 1.888442, 0.676024, 3.974943, 1.326668, 0.192068, -1.310401, -0.440888, -1.366755, -1.215953, -0.031842, 0.196867, -0.786930, 1.875406, 3.516553, 0.592689, -1.875742, -0.207530, 1.821651, 0.011622, -0.042633, 0.093323, -0.090344, 0.020447, -0.507603, 0.027590, 0.212958, -0.138276, 0.024036, 0.081793, -0.055048, -0.047111, 0.032796, 0.082872, -0.322239, 0.138315, -0.070157, -0.112258, -0.080620, 0.030359, 0.342256, -0.078857, 0.004380, 0.053667, 0.254751, -0.005671, -0.030151, 0.303897, 0.055642, -0.005659, -0.015351, -0.042573, 0.000000, 
-0.345946, -0.089547, 0.331537, 0.524968, 0.005670, 0.329681, 0.130605, 0.160812, -0.228896, 0.177464, 0.312525, 0.006368, -0.147489, 0.001427, 0.145401, 0.157580, 0.256864, 0.435778, 0.662628, 0.103886, -0.175326, -0.511747, 0.506579, -0.523876, 0.193324, 0.314071, 0.625147, 1.035108, 0.537245, -1.031338, 0.413873, -0.307412, 0.358456, 0.054314, 1.279176, -2.161136, 8.048972, -0.865998, 0.451884, -0.334033, 1.887850, -0.748299, 0.519269, -0.570670, -0.963911, 0.073752, 0.519450, -0.326715, -0.474661, -0.757992, 0.531230, -0.057616, 0.125832, 0.028031, -0.131589, -0.009751, -0.067179, -0.051888, -0.229613, 0.144059, 0.202078, 0.004305, -0.052833, -0.012250, -0.054954, -0.130074, 0.007088, -0.126470, 0.016242, 0.029748, -0.008497, 0.039733, 0.055672, 0.000000, 
-0.269072, -0.058231, 0.065844, 0.030601, 0.069710, 0.268880, 0.233879, 0.108585, 0.163890, 0.220958, -0.031303, 0.095313, -0.015317, -0.050316, -0.181759, -0.166742, 0.132143, -0.051199, -0.107973, -0.188849, -0.190232, -0.120677, 0.056821, -0.098338, 0.044107, 0.123823, 0.048038, 0.002523, -0.092488, 0.015698, -0.135308, 0.151716, 0.084045, 0.029889, 0.225358, -0.446299, -0.233039, -0.346000, -0.122956, 0.170478, 0.332182, 0.396075, -0.082174, 0.500400, 0.051792, 0.148844, 0.199938, 0.022651, 0.041844, -0.074065, 0.083462, 0.057038, -0.020853, -0.161379, 0.014554, 0.230451, 0.544946, -0.405294, -0.524593, -0.349799, -0.109120, 0.244039, -0.044714, -0.052347, -0.061424, 0.067654, -0.051503, 0.274890, -0.637567, -1.326111, -5.533234, -0.763148, 0.184749, -0.000000, 
-0.166838, 0.268590, 0.176179, 0.074371, -0.027889, 0.433588, 0.079756, -0.125905, -0.362607, 0.211575, 0.005358, 0.048115, 0.076929, 0.345888, -0.016430, -0.174811, -0.090992, 0.035144, 0.071617, 0.006704, -0.008342, -0.002638, -0.104139, 0.062382, 0.065415, -0.117775, -0.201585, 0.004021, 0.040659, 0.048613, -0.046958, -0.067455, -0.148784, 0.034049, 0.006307, 0.211990, 0.040738, -0.202380, 0.180903, -0.025266, -0.280326, 0.059403, -0.150473, -0.193807, -0.048459, 0.066351, 0.158354, -0.092020, -0.036497, -0.201641, 0.047540, 0.006675, -0.074863, -0.186711, -0.038060, 0.340191, 0.514635, -0.330212, -0.044432, -0.025518, -0.200143, 1.387352, -1.252296, 0.387466, -0.085927, 2.601339, -2.988047, -1.860395, -4.295619, 0.632975, 0.366334, -0.012804, 0.082163, 0.000000, 
-0.288912, -0.824872, 0.496543, -0.767415, -2.412426, -0.328785, -0.592043, -0.308889, -0.581683, 0.080770, -1.113423, 0.575035, -1.528925, -0.392458, -0.604734, 0.368062, -0.516518, -0.928605, 0.661419, -0.127195, -0.316644, -0.413335, 0.085602, -1.222764, -0.791802, -2.795754, 1.390499, 0.790810, -3.071342, -0.962692, -6.551198, -1.236151, 0.136320, 0.298007, -0.335754, -0.270623, 0.265615, 0.032028, 0.097498, -0.208160, -0.343617, -0.144311, 0.079405, 0.047593, 0.138115, -0.055547, -0.086856, -0.061859, -0.049467, -0.094333, -0.125088, 0.129389, -0.298988, -0.219154, -0.088901, -0.050182, -0.055677, -0.054629, -0.004879, 0.016757, 0.171544, -0.044730, 0.032706, 0.000384, -0.043373, 0.052833, 0.030133, -0.071486, 0.018754, 0.045683, 0.071009, -0.003529, 0.009566, -0.000000, 
-0.118354, -0.033251, -0.166219, -0.119920, 0.001056, -0.199254, -0.002597, 0.207594, -0.119417, -0.200355, -0.129897, -0.076478, 0.047947, -0.030206, -0.208174, -0.225183, 0.015639, 0.004202, -0.014553, -0.147750, 0.120341, -0.168755, 0.017967, -0.166529, -0.214267, -0.035092, -0.258317, -0.039546, -0.170147, -0.322660, 0.010736, 0.290821, -0.273797, 0.368345, -0.026692, -0.061290, -0.237433, -0.430853, 0.036448, -0.011844, 0.108759, 0.109711, -0.043296, -0.032450, 0.382568, 0.076764, -0.315558, -0.168894, -0.374426, 0.695527, 4.180230, -0.444659, 0.328923, 0.026477, 0.098263, -0.119498, 0.061629, 0.108738, 0.117854, -0.151909, -0.226847, -0.152686, 0.059043, 0.079059, -0.067201, -0.049730, 0.216961, 0.121773, -0.195916, 0.073792, 0.024640, -0.118399, -0.022991, -0.000000, 
-0.002978, -0.013925, -0.018621, 0.012101, -0.015309, -0.008648, 0.033675, 0.003170, 0.024388, 0.099973, 0.045750, -0.021818, -0.114513, -0.049418, 0.034167, -0.038350, -0.030291, 0.029160, 0.043587, 0.132378, 0.235313, 0.032270, -0.203713, 0.108279, 0.131018, -0.061258, -0.005673, 0.095619, -0.000116, -0.088655, 0.055570, -0.050408, 0.076847, 0.023636, -0.027743, 0.111266, 0.014525, -0.023063, -0.059414, 0.015339, 0.076573, 0.063657, 0.001394, 0.154274, -0.050736, -0.007319, 0.080095, 0.035001, 0.081136, 0.218146, -0.303871, 0.111606, 0.249404, -0.313814, -0.106113, 0.277802, -0.100851, -0.142960, -0.067177, -0.296146, 0.112178, 0.042067, 1.532275, 8.204019, -5.006372, -0.950094, 0.336856, -0.214340, -0.260717, 0.041011, 0.027210, -0.029203, 0.015919, -0.000000, 
-0.095322, -0.007262, -0.036578, -0.058950, -0.030062, 0.049772, -0.072092, -0.068206, 0.039502, -0.102421, 0.027929, -0.084582, 0.125658, -0.008767, 0.038810, -0.110514, -0.018996, -0.050850, 0.045585, -0.021558, 0.016440, -0.064524, 0.166771, 0.070885, -0.019180, 0.007680, -0.157322, -0.139194, -0.006451, 0.140542, -0.210241, 0.071722, 0.002900, -0.027997, 0.173977, 0.163703, 0.080597, -0.137681, -0.152428, 0.045505, 0.149167, 0.007675, 0.251738, -0.067544, 0.229940, 0.320455, -0.311396, -0.125712, 0.185681, 0.042099, -0.047813, 0.070560, -0.146211, -0.607683, 0.883794, 2.642251, 2.619026, 2.003325, -2.455992, 4.684864, -2.374953, -2.316839, 1.266858, 2.742343, 4.695506, -0.200554, 0.048812, -0.685571, -0.335301, 0.003806, 0.048048, -0.036882, 0.062578, 0.000000, 
-0.257846, -0.306511, 0.479598, -0.855169, 0.135304, -0.191040, 0.524925, 0.064963, -0.021409, -0.170845, -0.905640, -0.524987, -0.647578, 1.382304, 2.456041, -2.703808, 2.381461, 4.272330, -4.574725, -1.237917, 1.411560, -0.426148, 0.261885, -0.676427, -0.001552, -0.654199, 1.706075, 0.046655, -0.199450, 0.961799, -0.701661, 0.246400, -0.553643, -0.158078, -0.029866, -0.020394, 0.102807, 0.009537, 0.093729, -0.055641, 0.194823, -0.112135, 0.130757, -0.114091, -0.116732, -0.038843, -0.019682, -0.056779, -0.095018, -0.079830, -0.147742, 0.010531, -0.110117, 0.038964, -0.044121, -0.069073, -0.011583, 0.051553, 0.016388, 0.028006, 0.031306, -0.053360, 0.030487, 0.009858, -0.012192, 0.030983, -0.006415, -0.054909, 0.026734, -0.013830, 0.007471, 0.009026, 0.017105, -0.000000, 
};

double MeanTrainPos09[] = {
	0.752500, 0.294643, 0.906786, 0.449286, 0.970357, 0.943929, 0.237500, 0.921786, 0.391071, 0.955357, 0.970000, 0.152857, 0.141071, 0.974643, 0.987143, 0.282143, 0.915357, 0.158929, 0.991429, 0.995714, 0.988571, 0.067143, 0.975000, 0.146071, 0.982857, 0.189286, 0.973571, 0.971071, 0.059286, 0.991429, 0.993214, 0.992857, 0.146429, 0.971786, 0.987143, 0.997143, 0.998929, 0.046786, 0.050357, 0.108571, 0.992857, 0.991429, 0.991429, 0.997857, 0.997857, 0.996786, 0.211071, 0.947857, 0.096786, 0.996429, 0.983571, 0.987500, 0.044286, 0.122857, 0.979286, 0.998571, 0.062143, 0.989286, 0.012857, 0.998214, 0.070000, 0.991429, 0.991071, 0.995000, 0.997143, 0.991786, 0.998214, 0.020357, 0.014643, 0.997857, 0.046071, 0.999643, 0.998929, 0.996071, 
};

int HaarFeats10[] = { 4, 6, 10, 4, 6, -1,
5, 6, 4, 8, 8, 1,
7, 6, 12, 5, 4, -1,
4, 9, 4, 2, 8, -1,
5, 2, 4, 5, 5, -1,
3, 6, 2, 2, 15, -1,
6, 4, 6, 2, 8, 1,
3, 6, 2, 9, 9, 1,
5, 2, 4, 9, 11, -1,
3, 10, 2, 4, 2, 1,
2, 2, 6, 4, 13, 1,
4, 6, 4, 3, 9, -1,
6, 8, 8, 7, 11, 1,
4, 6, 8, 5, 5, -1,
2, 4, 4, 12, 8, -1,
7, 9, 12, 5, 4, -1,
5, 4, 4, 5, 4, -1,
1, 4, 6, 8, 9, -1,
4, 9, 2, 8, 17, 1,
7, 9, 6, 4, 11, -1,
3, 4, 6, 15, 13, -1,
1, 2, 6, 12, 10, 1,
4, 3, 2, 2, 2, -1,
5, 2, 4, 3, 9, 1,
6, 12, 2, 4, 2, -1,
7, 3, 3, 7, 16, -1,
2, 2, 4, 10, 15, 1,
5, 2, 4, 10, 15, 1,
5, 8, 4, 4, 4, 1,
1, 14, 9, 2, 5, -1,
3, 2, 6, 6, 12, 1,
1, 6, 9, 5, 5, -1,
4, 6, 8, 12, 11, -1,
1, 14, 12, 3, 7, -1,
2, 2, 4, 9, 2, -1,
6, 8, 6, 2, 13, 1,
3, 4, 2, 8, 2, 1,
2, 4, 2, 10, 15, -1,
7, 9, 12, 7, 2, 1,
7, 6, 12, 8, 3, -1,
2, 2, 2, 10, 7, -1,
4, 12, 6, 4, 2, 1,
4, 9, 2, 4, 5, -1,
3, 10, 2, 3, 8, -1,
};

double Thresholds10[] = { 
	-20.774927,	0.992702,	-51.651587,	-31.428267,	1.582389,	3.632759,	10.314736,	4.767601,	-1.906315,	-10.814908,	-0.184604,	-14.410031,	-5.754511,	-28.715799,	2.912110,	-64.045314,	1.397319,	-12.640842,	-3.880140,	-38.558545,	6.599087,	-5.901252,	-2.544110,	-0.657333,	16.165203,	7.114367,	6.003246,	3.667069,	-4.141574,	20.856435,	-4.132325,	18.523785,	16.647715,	52.856850,	-3.982660,	-16.166816,	-5.437018,	-3.019125,	-45.036435,	-51.184624,	-2.299640,	-7.990137,	-13.765169,	7.267345,
};

double Weights10[] = {
-0.816258, -0.307921, -1.287998, -0.305600, -0.104023, 0.678013, -0.401318, -0.241713, -0.188143, 0.264519, -0.232901, 0.460544, -0.317489, 0.128408, 0.028335, -0.226153, -0.323066, 0.063697, -0.205226, -0.021478, -0.942341, -0.884205, 0.201698, -0.199836, -0.042530, -0.085452, 0.124954, 0.755145, -0.084739, 0.217477, -0.042881, 0.208011, 0.008426, -0.048993, 0.028295, 0.021770, -0.123465, 0.054042, 0.025551, -0.021979, 0.046841, 0.033848, 0.033189, 0.003115, 
-0.756599, -1.199652, 1.419383, -0.427888, 0.603541, 0.209953, 0.907265, 0.014407, -0.026015, -0.777860, -0.259460, 0.502054, 0.318452, -0.634971, 0.055215, 0.264323, -0.439634, 0.030252, 0.074349, -0.212878, -0.409489, -0.474381, 0.031196, 0.093872, 0.090997, -0.002519, 0.063178, 0.361049, -0.031973, 0.113179, 0.068895, -0.165612, -0.048739, -0.008818, -0.038654, 0.001526, -0.010185, 0.094052, 0.005955, 0.061139, 0.007448, 0.019222, 0.011767, -0.007215, 
-0.474303, -0.445583, -0.014054, -0.243093, -0.026777, 0.300528, -0.014039, -0.020478, -0.188894, -0.123951, -0.018269, -0.100715, 0.020526, -0.059704, -0.026096, 0.192402, 0.136238, -0.015263, 0.213061, -0.133960, 0.446793, 0.418039, 0.054299, 0.146252, 0.016185, 0.040079, -0.081980, 0.097543, 2.455398, 0.000793, -0.596996, 0.225586, -0.079692, 0.100191, -0.178417, -0.030167, -0.230120, 0.253270, -0.014483, 0.365548, 0.205010, 0.090679, 0.143267, -0.026484, 
-0.057994, -0.473848, 0.049160, 0.041609, -0.021928, 0.040915, 0.035241, 0.033616, -0.041865, -0.062030, 0.228923, -0.144736, 0.000361, -0.002007, 0.065208, 0.126191, 0.102296, 0.019852, 0.090846, 0.074630, 0.279588, 0.345141, -0.043445, 0.006787, -0.063973, 0.074277, -0.099747, -0.457285, 0.183181, -0.103672, 0.081701, 0.807122, 0.045778, 0.283723, -0.279381, -0.215758, 0.556607, 0.083380, -0.058669, 0.401057, -0.742479, -0.293946, -1.779472, 0.429112, 
-0.025735, -0.014877, -0.235222, 3.582787, -2.461723, 0.646191, 3.200776, -1.348124, -0.311449, 0.084651, 0.444219, 0.674699, 0.315350, 0.219127, 3.850980, -2.348220, 0.102150, -1.105296, 0.002322, -0.503771, -0.051766, -0.120358, -0.455173, 0.132695, 0.241484, -0.140939, 0.148793, 0.082782, 0.280037, -0.012080, 0.085752, -0.078593, 0.007961, 0.128668, -0.019231, 0.038371, 0.054807, 0.062550, -0.012063, -0.035238, -0.024520, -0.002149, -0.067640, 0.045991, 
-0.098709, -1.024594, 1.340429, -0.341285, -1.210843, -0.428309, -0.806785, -0.655187, 0.500578, 1.109348, 1.695856, -0.978092, -1.845480, -0.406289, -0.220695, -0.294344, -0.884972, -1.604791, -0.579154, 0.924516, -0.443961, -0.430998, -0.173669, -0.083864, -0.113630, -0.166697, -0.051076, 0.165704, -0.031364, 0.065869, 0.061336, -0.032376, -0.034163, -0.019477, 0.079403, 0.022197, -0.005432, -0.068104, -0.068061, 0.003197, -0.032407, -0.018434, -0.020440, 0.030522, 
-0.096009, -0.098583, 0.114971, -0.034405, 0.003369, 0.094877, 0.161273, 0.011443, -0.080800, -0.274311, -0.015597, 0.018334, 0.118135, -0.057052, -0.031681, 0.199933, 0.030863, 0.065554, 0.096916, -0.074761, 0.198906, 0.177439, -0.053070, 0.075945, -0.039923, 0.067490, 0.016114, -0.201257, 0.064323, -0.246648, -0.292092, 0.306174, 0.082539, 0.105352, -0.159436, 0.110128, 0.357741, -0.398751, -0.015740, -0.698685, -0.948041, -1.283906, 1.405913, 0.362369, 
-2.655737, 2.241221, 1.030367, 0.351888, 0.387450, -1.086561, 0.112512, 0.206826, 0.151964, 0.582773, 0.047882, -0.228231, -0.223474, 0.478687, -0.070582, -0.160168, 0.276685, -0.149067, -0.142943, 0.025100, 0.010446, 0.043239, -0.065286, -0.014058, 0.042119, -0.063621, 0.058278, -0.087288, -0.075057, 0.006516, -0.049975, -0.035225, 0.013650, 0.015316, 0.045811, -0.032456, 0.027364, -0.093519, -0.043876, 0.006540, -0.050635, -0.015708, -0.030553, -0.006799, 
-0.269773, -0.365428, -0.148083, 0.170470, -0.057726, 0.203994, -0.125295, -0.130838, -0.079028, 0.156053, -0.001964, -0.133582, -0.019152, 0.086392, -0.094343, 0.017258, 0.052439, 0.195317, 0.022597, 0.050439, -0.102324, 0.090170, -0.018497, -0.131886, -0.297454, -0.071793, -0.072289, -0.597874, -0.064853, 0.000458, -0.089059, 0.366566, -0.117554, -0.004932, -0.244816, 0.129845, 0.327344, -0.363022, -1.982866, -0.889217, 0.759944, 0.612490, 0.125899, 0.010335, 
-0.296704, -0.535331, -0.054724, -1.309581, -3.151346, -1.948104, 0.749273, 4.182039, -1.946173, 1.038525, -0.863948, 0.458924, 0.712958, -1.023292, -0.869539, -1.570908, -1.249923, 0.245245, 1.093382, -0.323555, 1.895864, -1.880087, -0.810320, -1.061126, -1.571422, 0.700014, -0.195668, -0.100308, -0.109034, 0.006792, 0.079861, -0.011407, 0.029569, -0.120789, -0.226630, 0.199655, -0.173745, -0.073012, -0.002717, 0.037206, -0.019463, -0.014380, 0.033656, -0.013565, 
0.100330, -0.718441, -1.653633, 1.239381, 2.374228, -1.441597, 1.643595, 1.686005, 1.102504, 0.126038, 0.964652, -1.089231, -0.051998, -0.128673, 0.040753, -0.046226, -0.283326, 0.523339, -0.167723, 0.560069, -0.132753, -0.043582, -0.068939, -0.142343, -0.052560, 0.061797, -0.040586, 0.123752, 0.163845, -0.034011, 0.011029, -0.039315, 0.041505, -0.070395, -0.011216, 0.054170, -0.095896, 0.044882, -0.024649, 0.031069, 0.020140, 0.029143, -0.063991, 0.028135, 
-0.409687, -0.440234, -0.279006, -0.007889, -0.106941, 0.318913, -0.137263, -0.052221, -0.025721, 0.046694, 0.107532, -0.161201, 0.084295, 0.038777, -0.132559, -0.082409, 0.195108, -0.078990, 0.083124, 0.125886, 0.353236, 0.410762, -0.101627, -0.157826, 0.081306, -0.055069, -0.075254, -0.502204, 0.372157, -0.087435, 0.589902, -1.916352, -0.121544, -0.140776, 0.366897, -0.022036, -0.678888, 0.261006, 0.000837, -0.183021, 0.322391, 0.151291, -0.033138, -0.025840, 
-0.044489, -1.192036, 0.124051, 1.857447, 0.379670, -1.592632, -1.267681, -0.147876, 0.478341, -0.525445, -3.457252, 0.615131, -3.578307, -1.417385, 0.319184, -0.509236, 0.809701, 0.431222, 0.101520, -0.166011, 0.578938, 0.124672, -0.155122, 0.321985, 0.126271, -0.045635, -0.090151, -0.212379, 0.048175, -0.001090, -0.138319, -0.251643, -0.153017, -0.047441, 0.106001, -0.114271, -0.166994, -0.026001, -0.097021, -0.064223, 0.055345, 0.026530, 0.035090, -0.029116, 
-0.162883, -0.319615, -0.331446, 0.161349, -0.144319, 0.313266, -0.030774, -0.028310, -0.068516, 0.037900, 0.107713, 0.038762, 0.087794, 0.017615, -0.142356, 0.044705, 0.103951, -0.010808, -0.147878, 0.129028, 0.302669, 0.277559, -0.082599, -0.118275, 0.000045, -0.013299, -0.113233, -0.722588, -1.239636, 0.217146, 0.373903, -0.936832, 0.044708, -0.203577, -0.280830, 0.104895, 1.018764, -0.176019, -0.183005, 1.494053, 0.144958, 0.194984, 0.405688, -0.048894, 
0.031689, 0.188896, 0.533321, 0.008402, -1.032841, 0.060034, 0.028078, 0.690644, -0.925365, 1.231130, -0.603305, -1.130681, -0.623142, 0.151551, 2.606790, 4.233653, -1.108883, 1.531370, -0.332885, 0.236924, -0.551178, 0.057050, -0.084026, 0.261820, -0.742641, -0.507599, -0.059201, -0.093351, -0.158784, 0.088874, 0.158800, -0.141894, 0.375919, -0.007783, -0.002608, 0.016684, -0.117762, -0.075006, 0.032358, 0.011193, 0.071715, 0.127281, 0.002048, 0.007217, 
-0.716998, 0.104646, -0.508073, 0.005576, -0.065432, 0.214855, -0.313101, -0.092448, 0.038721, -0.127448, -0.113128, -0.289009, 0.142919, -0.184262, 0.084720, -0.188417, -0.053993, 0.021234, -0.138565, 0.064428, -0.299756, -0.358043, -0.062558, -0.127189, -0.087017, 0.003307, 0.014851, 0.087126, -0.858568, -0.281938, 0.271120, -0.163961, -0.033079, 0.068287, 1.083612, -0.219649, 0.334769, -0.505190, -0.534034, -0.740751, -1.583913, -0.472472, -0.520704, -3.602465, 
0.158669, 0.078533, 0.003919, 0.967734, -0.695259, -0.027640, 0.926886, -0.514453, -0.701954, -0.484028, -0.023849, -0.851801, -0.681231, 0.607693, -2.064103, 1.014355, 0.222510, -0.109131, 1.390387, -0.178955, -0.313646, -0.236962, 0.043989, 0.078030, 0.149786, -0.056509, 0.257223, 0.384953, -0.163136, 0.220215, -0.147350, -0.045803, -0.018546, -0.121289, 0.026323, 0.029561, -0.111933, -0.068551, -0.028255, 0.004219, -0.010763, 0.006487, -0.048305, -0.022777, 
-0.019508, -0.108461, -0.460463, 0.074143, -0.135253, 0.012950, -0.150244, 0.004532, 0.030168, -0.030470, 0.075550, -0.159622, -0.092359, -0.058878, 0.015350, 0.017537, 0.164503, 0.001200, 0.133704, 0.210797, 0.264962, 0.240691, -0.051226, -0.001975, -0.078159, 0.045463, 0.113149, -0.069236, -0.236104, 0.080484, 0.256515, 0.233954, 0.387624, -0.314843, 0.066475, 0.176762, 1.302856, 0.319236, 1.507233, -0.868942, 0.878442, 0.091719, -0.046026, -0.075547, 
-0.073244, -1.388656, 0.068970, 0.987182, 0.741220, -2.131739, -1.220007, -1.032395, -0.926060, 1.317785, -0.576996, -0.268441, 1.988310, 1.322693, -0.128476, 0.386150, -0.619127, -1.280162, -0.295753, -1.750302, -0.043432, 0.166889, -0.063175, 0.329395, -0.127165, -0.072721, 0.036561, 0.126117, -0.138143, 0.016282, 0.017910, 0.028406, 0.067406, 0.086032, 0.054178, -0.023353, -0.020529, 0.067640, 0.027301, 0.014898, 0.028227, -0.010937, 0.060645, -0.021126, 
-0.314743, -0.189530, 0.151787, 0.048627, -0.041103, 0.011008, 0.150207, 0.003158, -0.073979, -0.224215, 0.132217, -0.143513, 0.063002, 0.166461, -0.046084, 0.007951, 0.198119, -0.065270, 0.224561, -0.073904, 0.399196, 0.473690, 0.088784, 0.076118, -0.118932, 0.063413, 0.020376, -0.193629, -0.768692, -0.755874, 1.212869, 0.950196, 0.304802, 0.710055, 0.303097, -0.239521, -0.795911, 1.165235, -0.186614, 0.240635, 0.191023, 0.048418, 0.227799, 0.081310, 
-0.454120, -0.087374, -0.535855, 0.017269, -1.005611, -2.105421, -1.061047, -0.240844, 0.158124, -2.970835, 1.791343, 1.366949, 0.118661, 0.401604, 0.666783, 0.530773, -0.120546, 0.354645, -0.048309, 0.156037, -0.113589, -0.212857, 0.050798, 0.204562, -0.143504, 0.038194, 0.243965, -0.106555, 0.028187, 0.043770, 0.043131, -0.021834, 0.051665, -0.122113, -0.038424, -0.051094, -0.184480, 0.061338, -0.078807, 0.000466, 0.053914, 0.051183, 0.019540, -0.018856, 
0.084700, 0.202913, -0.025131, -0.003535, -0.371079, 0.046117, 0.149804, 0.001896, 0.213953, -0.061250, -0.031631, -0.063423, 0.154140, -0.001647, -0.018312, 0.414904, -0.172800, -0.045976, 0.690346, -0.108997, 0.279848, -1.509758, 0.377914, 0.376634, 2.640197, -0.917769, -6.866963, 0.067392, -0.224079, -0.283315, 0.494054, 0.361393, 0.041756, 0.140901, 0.051613, 0.161753, 0.237274, 0.207259, 0.044442, -0.271163, 0.150907, 0.039191, 0.043440, -0.035084, 
-0.574714, -0.552247, -0.320381, -0.279182, -0.146850, 0.552623, -0.197923, 0.009851, -0.052550, 0.075730, 0.343103, -0.285307, 0.011054, -0.009874, 0.176469, 0.119807, 0.353747, 0.023500, 0.104985, 0.282623, 1.591318, 0.771074, -0.131492, 0.663875, 0.323333, 0.029595, 0.089573, 1.418711, -0.282421, 0.366697, -0.029408, 0.045748, -0.109039, -0.052985, 0.030258, -0.011937, -0.099478, -0.089569, -0.097525, 0.007932, 0.079337, 0.017229, -0.017824, 0.008267, 
0.244501, -0.136426, 1.657828, 2.488381, -0.431951, 1.908405, -2.308622, 2.253754, 1.130732, -0.747165, -0.041855, -0.406884, 0.942154, 0.773256, -0.256269, -0.118610, -0.052337, 0.237828, -0.053863, -0.217537, -0.312276, -0.348357, -0.187107, 0.077651, -0.051155, -0.282239, 0.120874, 0.199138, -0.021973, 0.260137, -0.070614, 0.057200, -0.009676, -0.084933, 0.032668, 0.009532, -0.013328, 0.007467, 0.052795, -0.055851, 0.066407, 0.030241, 0.016580, 0.003763, 
0.022204, -0.580887, -0.111539, -0.309172, -0.638876, -0.335448, 0.448070, 1.675898, -0.917353, -0.164980, 0.140247, -0.862488, 0.474440, -1.280520, 0.186179, 1.422942, 6.160879, -2.332965, -2.661851, -0.453523, -1.888726, -0.620460, 0.115584, 0.001784, 0.551965, -0.188050, -0.023119, 0.263918, 0.100814, 0.178504, 0.006095, 0.137755, 0.037962, -0.095617, 0.034851, 0.032915, -0.105248, -0.096078, -0.146350, -0.061866, 0.021643, -0.012707, -0.062420, 0.051525, 
-0.345943, -0.569668, -0.266103, -1.145274, -1.870307, -0.998910, 1.373011, -0.611191, 5.203635, 0.918311, -1.391561, 0.681727, 1.200424, 0.954236, -0.435376, 0.788836, 0.768572, 0.334941, 0.294187, -0.352913, 0.270496, -0.098648, -0.178939, -0.176061, -0.331882, -0.408923, 0.217723, -0.020498, -0.096863, 0.383554, -0.117216, 0.076180, -0.065102, 0.107283, -0.125552, 0.047675, -0.054380, -0.096046, -0.019226, 0.091262, -0.027815, 0.007621, -0.065783, 0.000289, 
-0.553871, -0.212144, -0.040896, -0.080550, 0.138548, 0.195976, 0.160947, 0.013994, -0.153364, 0.043293, 0.068510, -0.050213, 0.137074, -0.214552, 0.070580, 0.007096, 0.073301, 0.085909, 0.011972, 0.122601, 0.113384, 0.126449, -0.231320, -0.142117, 0.372795, -0.178293, -0.279181, -1.268597, -0.419959, 3.098569, -0.839963, 0.303582, -0.038709, 0.807264, -0.008139, 0.656868, -0.810918, 0.451918, 0.212167, -0.129208, -0.043992, -0.125976, -0.021055, -0.055176, 
-0.246725, -0.287253, -0.108573, 0.062778, 0.037970, 0.124241, -0.056493, -0.035440, -0.115176, 0.163640, 0.059127, -0.095154, 0.240654, 0.085268, 0.125524, -0.056858, -0.029831, -0.150555, 0.061402, -0.024468, 0.118020, 0.091248, 0.035306, -0.054033, 0.086876, 0.018093, -0.191253, -0.616045, -0.181175, 0.601213, -0.332097, 0.479056, 0.259465, -1.942637, 0.168711, -3.592242, -0.288573, -0.213656, 0.058382, -0.018905, 0.117513, 0.076461, 0.204611, 0.036284, 
0.077790, 0.698083, -0.386858, 0.882191, 0.331704, -0.053059, -0.921899, -0.171300, 0.492971, 1.381332, 1.542817, 1.522483, 0.482206, -3.442094, -0.057850, 0.734247, 0.234989, -0.305067, 2.482683, -0.782513, -0.747811, 0.825553, -0.778225, 0.277571, -0.481915, -0.293087, -0.143493, 0.515488, -0.219895, 0.100724, -0.021835, 0.080540, 0.028678, -0.183429, 0.017219, 0.087510, -0.005157, 0.073353, -0.062265, -0.025664, -0.018960, 0.048996, -0.058647, 0.008891, 
-0.026976, -0.053138, -0.043818, 0.289909, -0.075245, -0.137527, -0.393153, 0.161302, 0.357604, 0.782033, 0.319944, -0.107689, 0.191247, -0.434023, 0.631313, 1.028723, -0.163586, -0.229616, 0.609748, -0.124788, 1.791428, -2.652795, 2.401717, 0.027701, 4.183520, 1.430453, 2.432688, -1.687352, 0.323140, -0.053239, 1.524439, 0.938884, -3.535951, -0.995662, 0.257714, 0.605521, 0.255782, -0.066342, 0.000845, -0.177325, 0.177967, -0.074023, 0.094658, 0.004422, 
0.293719, -0.359722, 0.976924, 0.423724, -0.029535, -0.424950, -0.469946, -0.688243, -0.586524, 0.709269, -0.854374, 0.794028, 1.757064, 0.288971, 0.069072, -0.164571, 1.004130, -0.058629, 1.229774, 4.598695, -0.451244, -0.176362, 0.284065, -0.188167, -0.275794, 0.037380, 0.037758, -0.049620, 0.291312, -0.156986, -0.161298, -0.009511, 0.016961, -0.171449, -0.056662, 0.000366, -0.029098, 0.034630, 0.092912, -0.033073, 0.147344, 0.019846, 0.068815, -0.016825, 
0.111489, 0.062453, 0.022906, 0.234464, 0.015191, 0.161151, -0.349030, -0.077367, 0.156783, 0.211615, 0.178401, 0.177652, 0.122313, -0.582609, 0.067244, 0.330938, -0.033863, -0.229478, 0.174581, -0.113587, 1.216877, -1.712431, 1.184049, -0.098714, 2.168372, 0.907921, 1.134301, -0.291023, -0.144209, -0.621893, -1.531799, -1.175866, 6.918824, 2.550498, -0.498433, -0.824788, -0.062005, -1.121607, -0.429515, -0.290298, 0.259811, 0.492536, -0.295754, 0.051665, 
0.189112, 0.058370, 0.660161, -0.004679, -0.213000, -0.166427, -0.230826, 0.070727, -0.011624, -0.012840, -0.334377, -0.174594, -0.098964, 0.092425, 0.266731, 0.406238, -0.187274, 0.001280, -0.017400, -0.225942, -0.232068, 2.202624, -1.075084, -6.544269, 2.427220, 0.764571, -0.077597, 1.619105, -0.154302, 0.171137, -0.081180, 0.234391, -0.057801, -0.064374, -0.001737, 0.024222, 0.134651, -0.093183, -0.114491, 0.066847, -0.005626, -0.018731, 0.028736, 0.009321, 
-0.243685, 0.035700, 0.053353, 0.368113, -0.551119, 0.177653, -0.011863, 0.008761, 0.633275, 0.230439, -0.213489, 0.037845, -0.099948, 0.268450, -0.030497, 0.428537, -0.203760, 0.005664, -0.295981, 0.041497, -1.761840, 1.100901, -0.344533, 1.530028, -0.555170, 9.184900, -1.664109, 0.386565, -0.113506, 0.692406, 0.231323, -0.321976, -0.059730, 0.047027, -0.047390, 0.039947, -0.177666, 0.117441, -0.137003, -0.136136, 0.153994, 0.015017, 0.011402, -0.011137, 
-0.214434, -0.187908, -0.097030, -0.039594, -0.009383, 0.134165, 0.013747, -0.001092, 0.017985, -0.019363, 0.141552, -0.151689, 0.062230, 0.096447, 0.023207, 0.047002, -0.000571, -0.019571, 0.007547, -0.024628, 0.240951, 0.122204, 0.012198, 0.064183, 0.069463, 0.091200, -0.140747, -0.197110, -0.730824, -1.001262, -1.656916, -0.044139, -0.613231, 0.250024, 0.134497, -0.009586, -0.534879, -0.194335, 0.256033, 0.076307, 0.247920, 0.072957, -0.033051, -0.001306, 
-0.066967, -0.692427, 1.080798, 0.049008, -0.602507, -0.522310, -0.360167, -1.410330, -0.844255, 1.225462, 1.101445, -0.599288, 0.388863, 0.005358, -0.173459, -1.595781, 2.119765, 5.501403, -0.193631, -1.581066, -0.430862, -0.458753, 0.371511, -0.115131, 0.273789, 0.171401, 0.050925, 0.141549, -0.118331, 0.058226, -0.062282, -0.029192, 0.073969, -0.155879, -0.108139, 0.001861, 0.017678, 0.019843, 0.185617, 0.067221, -0.051116, 0.044171, -0.023531, 0.012750, 
-0.050319, -0.608834, -0.155609, -0.496276, -1.407739, -0.732320, 0.435586, 1.768294, -0.231969, 0.339770, -0.618028, 0.678249, -0.010081, 0.564336, -0.526096, -1.047219, -1.465598, 0.604204, -0.403323, 0.458876, -3.089887, 4.201788, 1.514984, 2.346460, 3.402040, -1.155857, 0.596669, -0.197084, -0.155519, -0.234442, -0.226436, -0.022647, 0.048857, 0.066961, 0.230364, 0.045767, 0.316441, -0.036412, -0.080920, -0.088710, -0.179553, 0.209246, 0.138103, -0.044290, 
-0.155814, -0.262125, 0.062270, 0.018056, -0.031111, 0.143098, -0.014169, -0.124378, 0.023247, -0.291906, -0.073655, 0.049701, -0.030298, 0.073567, -0.036911, 0.004925, 0.045310, 0.025606, -0.062246, 0.026905, 0.145899, 0.248925, -0.012317, -0.023707, -0.033348, 0.072260, 0.082311, -0.153750, 0.061195, -0.561700, 0.048473, 0.676717, 1.172717, -1.602525, 1.244318, 3.685812, -0.795566, -0.069991, -0.058547, 0.292700, 0.047225, 0.168477, -0.200507, -0.012966, 
-0.209230, 0.768985, -0.481031, -0.335024, -0.720988, -0.523166, -0.733676, -1.292979, 0.221034, -1.779653, -1.308807, -3.854341, 1.517730, -2.394175, 0.530774, -0.762262, -1.065663, -0.040110, 0.384011, 0.080966, -0.552186, -0.043167, -0.008915, 0.152090, 0.182395, 0.002418, 0.128253, 0.003088, 0.084922, 0.050732, 0.094119, -0.002347, -0.003227, -0.063987, -0.434315, 0.075628, -0.181091, -0.134231, 0.078342, 0.038969, -0.005248, -0.005462, -0.017131, -0.026347, 
-0.349892, 0.099116, -0.307531, -0.169132, -0.114810, 0.029614, -0.186175, -0.308079, -0.073542, -0.200642, -0.361497, -1.080764, 0.370839, -0.598086, 0.122995, -0.423797, -0.161414, -0.122954, -0.076475, 0.121263, -0.153188, 0.253439, 0.082545, 0.048406, 0.166658, -0.058724, 0.042949, -0.168277, -0.516023, -0.342562, 0.817869, 0.027122, 0.344972, -1.381382, -5.064156, 0.550643, -1.798867, -0.001236, 0.217092, -0.083856, -0.026733, 0.020135, -0.022065, -0.220112, 
-0.231344, -0.237534, -0.297877, 0.111663, -0.001338, 0.024553, -0.105628, -0.068866, 0.052023, -0.047321, -0.012255, 0.023344, 0.078152, -0.161428, -0.080114, 0.107658, -0.011566, 0.063386, 0.133360, -0.035472, -0.105402, 0.225482, -0.105271, -0.016409, -0.146843, -0.093158, -0.221909, -0.295547, 0.594001, 0.082225, 1.537793, 0.507139, -0.211857, 0.836082, 0.216310, -0.153029, -1.051717, -2.658611, 0.555164, 0.372285, 0.182055, 0.210723, 0.098519, -0.021618, 
0.001173, 0.454383, -0.239664, 1.494069, -0.528284, 0.000523, 0.391730, -0.775660, -0.268446, 0.221913, -0.108723, 1.027679, 0.837749, -1.757118, -1.999949, 0.569788, -0.934878, 0.535006, -3.130077, 0.687437, 0.947606, 0.047635, 0.125974, 0.067878, -0.050463, -0.061924, -0.206071, 0.254534, 0.150991, 0.011607, 0.052033, 0.131360, -0.166280, -0.015996, 0.053061, -0.063053, -0.068135, 0.042158, -0.025259, -0.040469, -0.024119, 0.126132, 0.040329, 0.034028, 
-0.165516, -0.051483, -0.154885, 0.349500, -0.151887, 0.103379, -0.033312, -0.144806, 0.028160, 0.049958, 0.053540, 0.160300, 0.258645, -0.376977, -0.370585, 0.190672, -0.103059, 0.038305, -0.645274, 0.381260, 0.570763, 0.201110, 0.113135, 0.069189, 0.025960, 0.089670, 0.012974, 0.065897, 0.337127, -0.362082, -0.227696, 0.123705, -0.047795, 0.316598, 0.075706, 0.000642, -0.232353, 0.401333, 0.994643, -1.218300, -2.608286, 3.748865, 0.585390, 0.527665, 
0.065894, -0.033736, 0.444175, 0.422914, -0.306331, -0.118070, 0.053613, 0.258986, 0.245320, -0.148384, 0.237314, -0.180039, -0.170322, -0.405217, 0.433192, -0.162678, 0.214402, -0.560089, 0.630207, -0.588038, 0.424362, 1.277355, 7.055560, -1.486698, -2.687309, 0.016566, -0.982921, 0.709963, -0.268762, 0.746923, -0.186307, -0.299952, -0.063315, 0.029118, 0.008995, 0.081592, -0.064335, -0.150559, -0.021369, -0.005817, -0.142888, -0.167652, 0.089149, 0.073272, 
};

double MeanTrainPos10[] = {
	0.752143, 0.849643, 0.263929, 0.281429, 0.991429, 0.952857, 0.246071, 0.936786, 0.167500, 0.992857, 0.959643, 0.313571, 0.983571, 0.229643, 0.981429, 0.053929, 0.923929, 0.218214, 0.967857, 0.185714, 0.962857, 0.992857, 0.178214, 0.971429, 0.994286, 0.986429, 0.063214, 0.065000, 0.976786, 0.994286, 0.976786, 0.996429, 0.992857, 0.999643, 0.252857, 0.988571, 0.993214, 0.056071, 0.974286, 0.025357, 0.079643, 0.965357, 0.033929, 0.994643, 
};

/*
int HaarFeats11[] = { 4, 4, 4, 2, 3, -1,
2, 4, 4, 3, 6, 1,
